Loreze-10mg\0.15787310279017527 0.16532222154669116 0.1069045695396687 0.14522208738847017 0.07332146293287599 0.04509767324086285 0.14546680184153307 0.13186555037631473 0.0845879704853935 0.0986645486785945 0.04635477180455438 0.10641225532630934 0.07667984877459075 0.10328896869478764 0.01928398631899937 0.07216040823295702 0.1505158890887117 0.11436471377178441 0.16619798064307978 0.0434773639893625 0.06226732787052201 0.08994044645450339 0.08038689683644623 0.17038552818933006 0.03180396563216869 0.05280179225209836 0.03945481102875677 0.11231572663055364 0.06050437480181425 0.06985526470306246 0.022426078626928313 0.12523556424174037 0.10770577290859043 0.04908508651361887 0.05746325893037149 0.10501469122392816 0.07286992015818324 0.1020027794862701 0.11085171425644352 0.07996283021298432 0.1694742661638062 0.05061913953881351 0.09131105914841729 0.0874464573342046 0.012821495820101345 0.17203740001677 0.18099966512959464 0.09223104998285772 0.05927138436881204 0.12775317581566037 0.02379569327941791 0.06842704065027964 0.15673182452497184 0.16116222223266946 0.09780116914136038 0.05814150842824336 0.03199025163640472 0.01699548875570852 0.11941754096226245 0.12475752776927068 0.1251746129848537 0.06911695583035271 0.024254176295055253 0.0508611249031697 0.09910423475174954 0.07471985549777328 0.03769730328235045 0.14122066979834882 0.15060938336396165 0.05809163014582671 0.15678282495773044 0.1691716298526514 0.0544302588377328 0.08175463977229912 0.06359398489250345 0.14599388159678064 0.08021944988287316 0.17035959566025496 0.03788308021349941 0.02325345973100696 0.058807630471308665 0.15876353622607492 0.036320153935034724 0.11283703994669315 0.11861090843851449 0.13035426721902163 0.1439053732681884 0.09848114088495487 0.05316585294951622 0.04678705585282516 0.12465486183759164 0.1102637072019632 0.03911339987865461 0.12104826198551721 0.13724381696563917 0.01523700680571766 0.07582855059219283 0.09456831599724577 0.07124044319047103 0.09471870382546844 0.11923919022664144 0.06716664926874008 0.11170752354055387 0.1423936959662205 0.023191313698334614 0.10159119711158712 0.04411339043286444 0.10081655483818656 0.02097332115033903 0.1551504923288907 0.05279073442024372 0.11931558991511658 0.02870123862319741 0.0976503785195627 0.15912467679649836 0.05635701371595817 0.07259225503951125 0.13692935976124856 0.048663875530704406 0.06528138956163394 0.15539194005080736 0.17210620189517228 0.11002894740224771 0.04030622708005185 0.17217169708944619 0.03446773254110699 0.14389025039827685 0.037149914563952814 
Debutinat\0.13159190843054883 0.19618012765202658 0.09027193708742696 0.19016070187217285 0.17455028991972074 0.09547204771146138 0.09661469737634004 0.13722764543966243 0.21212538468255146 0.21817363086797034 0.21786507420210163 0.12508956226536783 0.18533462306264353 0.20764635232950035 0.18398007491810128 0.13458452444453547 0.14216966956827315 0.21978444235126707 0.11024323901953897 0.12705659824311688 0.23192925228298325 0.19211366644712413 0.07934333587657853 0.08811335038045243 0.11066265967700784 0.08749441541708593 0.09516646719866578 0.21113809032708813 0.11473572366677723 0.18424996618713896 0.1586632682228756 0.11367043672023348 0.14042132744192218 0.17467704689029456 0.09718476549792135 0.17820127357997767 0.13286343621374555 0.10272554529137543 0.17718305116865615 0.12268896352650811 0.0745958553404504 0.17003915128302766 0.17757771016316312 0.17390250440588956 0.16604398002158632 0.20048969544872364 0.13943853315231405 0.07841247706794961 0.09214813162063747 0.09274542954793166 0.1662219484502666 0.14975535585299937 0.20786086447336238 0.19188210271185518 0.10794511177577511 0.08615021466726216 0.21707184629737994 0.1826231130894133 0.17764645649822847 0.11488265986483709 0.15218749833957224 0.21648329080406403 0.15594889948010562 0.222380894436035 0.18566597505232238 0.09404419319064737 0.10265124411527168 0.1676688542655445 0.14643450885604986 0.19954042284822726 0.18940398368179964 0.09118267094858198 0.12127598992538828 0.19091294454421034 0.21433764507196543 0.19150940747685466 0.18951478750253584 0.15531411922783256 0.09641436701997398 0.17591354995523897 0.15907224527271105 0.1016332501112359 0.19641507006840644 0.08934315165328124 0.1987631370630211 0.13777198770283308 0.18735478570034797 0.16449354789528942 0.07573045357789168 0.16872940187872507 0.1721359140821329 0.11954062033415756 0.15819825153424175 0.1941332597088124 0.21416869723933069 0.15949681572571323 0.08335668636095427 0.08392301073703544 0.14497668340284836 0.1569938146534964 0.08092271245339912 0.13741470397099895 0.1883083661758261 0.08027886479643181 0.17986641507366408 0.10707840333384928 0.13993007101265037 0.11445089661455767 0.21191582651214017 0.17998544440380673 0.20812335404088744 0.14336864135391766 0.22591024228041584 0.22442551279567205 0.2059571074164695 0.10177154645216577 0.1583189514006219 0.10680193568215347 0.20383950421859015 0.12157706575661276 0.2382050658874621 0.10463710371150649 0.14532737217305633 0.09294104307600479 0.1897180417432779 0.23966093846377903 0.09507320850828872 0.2088090556307191 
Cozaar-50mg\0.11620676964852693 0.14319636818371223 0.10853476583355513 0.11800378791570071 0.046800600895210744 0.10084602156171071 0.07361796772277078 0.09277449337707502 0.005717794609497584 0.10412867475303524 0.06576693763787553 0.06332872187682853 0.0028088952115424494 0.08002936321768635 0.08975652573914068 0.05748734402072306 0.06322045739379917 0.12415813377954452 0.10030931157192044 0.10371908937978686 0.10812152498475487 0.11185503851574483 -0.0003161653840559895 0.012395025727508486 0.07818820313281503 0.08057794050094519 0.027404794430679603 0.11954328584989307 0.05564527977351761 0.0211783151473824 0.08877145036752454 0.14060513009746978 0.1148226699059875 0.11360945269888023 0.05454106947666662 0.06712066951555701 0.14063804015083176 0.12108668903912209 0.03961191244783392 0.03438525082136796 0.0677906013086495 0.11440309879314006 0.07698651706011589 0.08293857612375603 0.08840755582562483 0.017969407628250805 0.07662826853378148 0.014282305455896512 0.10859020800601607 0.11450721715140824 0.12124607981498735 0.05215857711127553 -0.0009481436651746041 0.12666457529882447 0.06483739708353532 0.11562447177076536 0.01523114626885843 0.03537782790593677 0.05527123256445252 0.04790940703713899 0.13637886370035995 0.1456265023953966 0.09732502313197497 0.08022533031930963 0.028000775715576725 0.05660743476248134 0.10910765318967945 0.11113619394024857 0.07930733982718309 0.11290712534528405 0.0674874259351691 0.09813035359869032 0.08289307429728358 0.0630043002459697 -0.0003260311231543675 0.05431770586811672 0.14851277517963715 0.04248969715003872 -0.0018819493230656666 0.10566457472448537 0.09735107990322195 0.007482004536549376 0.016743132058799546 0.025824896984519397 0.10543264862930761 0.1394508052145045 0.057958765676409195 0.11324403508747218 0.0373233447689061 0.11231044419652593 0.12041468642914525 0.14029434037544136 0.04764071017841637 0.006627463939298005 0.13701516880339887 0.06276730534894215 0.054169505381306375 0.0393550406048645 0.06272799084490296 0.02465902096587458 0.010902979334147373 0.08384473001672287 0.14272488533355432 0.017353216816076572 0.02397135397197184 0.11945359506516194 0.09188785464875017 0.00995107546501504 0.050365438496849664 0.10925226530865056 0.02658688326028535 0.015439771094821563 0.07821487611366795 0.08915178404770616 0.10905396727387372 0.019148735147194965 0.13524840882417594 0.07579124534373567 0.14010583969693172 0.04953572124201786 0.09846861116446036 0.0465331184393814 0.06621455149254014 0.10756404085264114 0.058133820368283275 0.11022294936783203 0.11117521604039547 0.05536621916895359 
Prazopro-40mg\0.11144712567680871 0.015968030681950525 0.08150745012611169 0.17666087130795685 0.12884866298364298 0.10157243854021251 0.04662754064137135 0.15208962956328506 0.10706233419305652 0.06611636822096877 0.13666832692218592 0.08461135389138687 0.1604361659569436 0.017424359426775577 0.10495249101664059 0.14550361319458888 0.06537846181501274 0.0910154258492024 0.05554100379236958 0.038608319952299554 0.09013112400853351 0.05124555697409605 0.080012629743993 0.099094264746918 0.029699855206933322 0.09612967711952679 0.1083722425228942 0.1460094033518665 0.013313104600934593 0.009342565354992635 0.056033967211627185 0.07720052016664815 0.10984819872970766 0.003339517244078416 0.1647889731117471 0.11267336326141689 0.06197652425077994 0.12500116833984903 0.07005228627341077 0.11509136743641772 0.10903951817428983 0.07872383446044315 0.13115641313468618 0.0473185282875507 0.09509010791943726 0.1300897041847166 0.10062925691492802 0.11987623304585734 0.012919892303497806 0.10044466204540069 0.006363997436483236 0.09541566062873996 0.11598699007174178 0.07247997534173393 0.022842777918206558 0.16186460867383493 0.1669041428946184 0.018194919964670438 0.0474383599198029 0.02288800807416787 0.11240885449459573 0.07879348736024387 0.1285174310095953 0.0351164345262139 0.12537620368277497 0.06383175668667784 0.12661884528894093 0.06112116373094965 0.041088116364770035 0.14400346517867021 0.02222649698028881 0.08446388365231387 0.040114659055536586 0.16132949788809406 0.04666884278061292 0.03565251818666335 0.050282886292480164 0.1500882780924404 0.035798345518908085 0.12622992818546827 0.1420462705034133 0.018523451642928256 0.05476001082912781 0.15757684409830652 0.07130710018095662 0.12793360660891973 0.0936015153308736 0.15977974854515303 0.01575654389929558 0.08706670366739991 0.014947898460214392 0.11429257624656557 0.08654426814785067 0.11790734733550752 0.03870390535081208 0.05839211862497805 0.08764555536083493 0.023733763515452557 0.07053329662487598 0.044987837675863965 0.06154284424643264 0.14493202440279543 0.12699253645729322 0.09576564841132178 0.07936230047105192 0.08839775653954546 0.05028249644628466 0.05270959243050029 0.1174784159109938 0.08791523119016706 0.114402472724149 0.09118260583914459 0.015885538879829762 0.09745329193096795 0.06669712300200127 0.14324873158710763 0.06261607531633415 0.0683596065525028 0.006597373983203641 0.11864981349936884 0.07746949839617462 0.12324750732659978 0.05766320928786127 0.06673538238641387 0.1514070150443585 0.10093810554384894 0.1473230923102691 0.16281807058770373 
Heptonic-Forte\0.248204651885745 0.2329447914386892 0.17817534381682149 0.23147370815826582 0.17895843321351543 0.17021542059845374 0.047474670258646455 0.19663391016464665 0.15692319347811903 0.24659688287599224 0.14785321365218237 0.1935208710026245 0.14514846636537498 0.1311373176857574 0.10782136014804716 0.1111297727235089 0.20956054904746005 0.16957451364194626 0.18940435285899151 0.1578379030269528 0.09656331607400592 0.07332254991775038 0.08285521782047715 0.16099904804907988 0.17931211621096702 0.2623385549028843 0.2077322167060598 0.13465763020329946 0.09026266682766265 0.11379520279978156 0.09564493251969611 0.09202384532162897 0.06457714089105607 0.21299312720391933 0.1780939509059928 0.10761672858506575 0.09969527367848735 0.12382132073970888 0.16117927154650094 0.14468363373487808 0.18173206409288362 0.07889095237045404 0.06941657705981603 0.1153224900718024 0.2126747882657049 0.13142608762890884 0.09451586575465339 0.19617927992284734 0.06688828584799117 0.08702713360552497 0.17140865501273964 0.08010083124992257 0.19620506877456828 0.10221290516323199 0.07030376603684248 0.12136357330243644 0.07771202753651107 0.15180410412867462 0.21055377032460482 0.09183839386859666 0.08133369684549224 0.18347240636614473 0.14898418690631718 0.14436015219126483 0.18356823176323533 0.19397241891553368 0.12135347796433095 0.12454856483435936 0.10105155376696683 0.06946079968567981 0.18099843424331766 0.21000009303966144 0.08992178933145363 0.08910289370958605 0.2030817061706585 0.1918404505383755 0.09907114126658549 0.17555204115032844 0.065724207172486 0.07609013682424219 0.15793523710911636 0.05448176298347471 0.11643609349818596 0.21374134957903418 0.044294357180455095 0.1979293717733327 0.12010655463312062 0.1870730151376065 0.14735286664886382 0.16714450731393812 0.04820131827255997 0.08969059668816115 0.2058960101419769 0.17847924387133834 0.1995119177079537 0.15757947718260015 0.07114371621281071 0.07875012124423215 0.15806477954504455 0.13135383296964032 0.10292154200826414 0.03195600411473362 0.06545723296159912 0.08739573536923421 0.08719395691996736 0.06134926415725302 0.05183619889624093 0.09123293062393519 0.07646144923599651 0.16411667121443768 0.1598965675428141 0.07963695775764383 0.052699690381522384 0.19692878345484224 0.08725799248379973 0.09702113051567808 0.11537171585562213 0.1887466463406525 0.1265507850725889 0.21114249271275584 0.07587732034457628 0.11182777092907492 0.14234365127428927 0.1906353190490414 0.1370230606841478 0.06492265526597622 0.17978035832093345 0.08328318502361043 
Cefadroxil\0.11483666662042762 0.17913957525501029 0.17434066935454479 0.2185836657821872 0.18791562686066732 0.11898163514313867 0.10120964541072736 0.22259363088176531 0.17700038475208776 0.17232542949227125 0.18621412094315043 0.14918171016285225 0.13405678432384854 0.12653183248665473 0.20220063131156055 0.20814019990342325 0.12684929205475529 0.11638649427461427 0.2166934929175821 0.13273892643506033 0.08029650557018563 0.21911910608663615 0.13578546802763936 0.10423884831582722 0.23301700456793717 0.11012239946392172 0.16196970669622313 0.19979516836478461 0.22623723760489747 0.13995410196784097 0.11475879504170486 0.13917793326900074 0.13381132663540476 0.10545850553210855 0.10098383760776167 0.20109260711175728 0.10194059875259157 0.2366231534741106 0.16412381901197534 0.1704794698307865 0.24464825299005788 0.105556515942189 0.13650429196732414 0.22743155120587896 0.20192166037455955 0.21293098263381002 0.22241184698995178 0.14787759934791772 0.227063147745021 0.15301538440046658 0.2202204796828105 0.1983237282000017 0.14797298342918305 0.16338477275536215 0.1990146565571746 0.16041041874679068 0.1092558071681302 0.18224490317769138 0.13774902368894135 0.1067143827876723 0.20691408940373962 0.13389878579856207 0.11658168619331337 0.14148763228632685 0.17090227452917153 0.09877620515240237 0.21637838357017788 0.18406714532504515 0.1709034608536349 0.12370505937814381 0.1690898958416093 0.1180259497485039 0.14497482278120274 0.13723261873089349 0.21025713506202406 0.0823587853351763 0.2313217457273823 0.24796284364133594 0.18740930866189742 0.18564648768613556 0.2212523736504764 0.2053262753364504 0.18025212585533576 0.19359633215169847 0.22774682632080723 0.144709194206288 0.2258896020897555 0.21176143338834638 0.09841974242229995 0.1923809005335583 0.18094786560293075 0.2126128565358599 0.20267106816624778 0.21836715609360577 0.11110910096198048 0.09491863203722047 0.11298672859692196 0.21121720423755286 0.09225205687473109 0.15564948563107112 0.06501442926535747 0.13209363999119136 0.08341059721251576 0.0863290938477385 0.07332269624497346 0.09389722141619565 0.1591984785158676 0.12812610328220408 0.16292455790894936 0.06419809179490338 0.17581392465882342 0.11659462926437225 0.2567819226297598 0.0839024269004715 0.16065157770024463 0.11536576377445354 0.16498601608662086 0.1191190190602001 0.2080199769316024 0.18094197134565815 0.19189492670626712 0.08571050130380771 0.13358331169490217 0.11996244313136109 0.14643556394726556 0.07076098952081773 0.1301705671745017 0.07430155467727356 
Liverbil\0.13558243002354936 0.13843871547005066 0.011618784891299286 0.09684498578012013 0.0855627631522918 0.0720178473037817 0.0608829623370816 0.1454168291199715 0.07492031191950518 0.009420886165100582 0.125694633376429 0.024271139515221956 0.14597868098253158 0.0936674982316216 0.11074427175429472 0.00511149609882949 0.10001972141890286 0.13846823884667012 0.09883011390315832 0.07623459079906406 0.0423763901757304 0.11841280144741882 0.14416441546311273 0.004219718446590184 0.1080232575948481 0.08769981141183267 0.057824221353448585 0.07291535030701005 0.0030062409951112736 0.10074004026963676 0.14176404401254517 0.037643758790796046 0.1132548117555657 0.024955857129695176 0.03685690993591987 0.015930743923607164 0.07926642589846429 0.07071389323924539 0.12559801466999956 0.0016398556659770842 0.1102515859559281 0.025798386286859296 0.1049857014686856 0.08688685744335557 0.0405235694937885 0.08554432922724559 0.024396545616349716 0.07890729953111862 0.1412277131970427 0.008110997306709933 0.11768306107486284 0.025450508600884103 0.028779279112399827 0.0685396035415454 0.13249281543325647 0.11220218582992132 0.10690875823129568 0.09323102769020453 0.0345374227139151 0.023014001487560245 0.05606548860754813 0.010902691725226149 0.03199190753646969 0.011814042658555705 0.12268523932457791 0.08258028881692743 0.06943513000971475 0.1347282328516503 0.03665008579212933 0.1398785356371616 0.0654781031697789 0.10642799815302355 0.10913063365686383 0.11270803417613053 0.04361954360245493 0.10138208023601468 0.13643259906930197 0.016613619088547027 0.02472145913415151 0.13922559300521095 0.09199604801882481 0.12829319146641763 0.051399405300910035 0.08149819956298676 0.04334283278036587 0.02996603284139851 0.044717817337571165 0.04847455756138489 0.11419393458620888 0.05953367092813833 0.00828936647622262 0.021187579170002063 0.1377856156765828 0.14098980858978044 0.02825363501565338 0.05199790917593557 0.03182246141717121 0.11734247197824765 0.053620642533889894 0.09458115018195482 0.12111873521092084 0.11627249047641178 0.12574591657928066 0.11303650799325152 0.04908503264475517 0.05734974824924225 0.04563378987160925 0.10553157751564862 0.0042903824467267525 0.09835793466012172 -0.003370987590119671 0.06481659865714692 0.0564072954037231 0.14260278249198646 0.08340446505635889 0.024737485818214458 0.1162528661166356 0.0012345830121053513 0.057991447805245885 0.05230969036691536 0.08143741840507564 0.027962693860409657 0.005474201609189467 0.066469443476561 0.1379153394243222 0.020923139930739004 0.140065324523905 0.04055597843076793 
Normagut-250mg\0.08157073991292277 0.06788432517408055 0.08816306424780017 0.12817495611012006 0.17331530371024764 0.03651969409705122 0.16917439058965447 0.11115742415579324 0.05038388417489903 0.16724625186688497 0.2016340417649956 0.14257490279018323 0.163120630364541 0.08457056367363172 0.19023818950593752 0.09572099702127838 0.17612433443488573 0.08853894836104718 0.0881521089267606 0.11466212167976639 0.13396536046296748 0.07140029927078416 0.1706907777773687 0.03575890753744781 0.044873682575199005 0.08273516386054419 0.02769942134080951 0.20338053713906087 0.07269785846143745 0.11977471406280654 0.1459284690825174 0.03049979859576996 0.08974582345212832 0.12592058358310673 0.22277969266949996 0.13925104401126084 0.24567007809133876 0.08039156243917565 0.15199120756280793 0.19769495786636523 0.05422701435204558 0.2575732395475249 0.21414139594248266 0.18550836968283457 0.1352609046430676 0.06561682787269724 0.08733666797343209 0.1352333231591545 0.11649216894610107 0.008520757060842642 0.04882336592136284 0.144295136533516 0.05743288387302656 0.17520215219573848 0.10985558710046726 0.10199548966434108 0.08865172834111144 0.1718882661529983 0.16066122746662606 0.2108767061369815 0.06772505733098258 0.07927027794092616 0.05732263562545527 0.06128882754797761 0.19585346699035938 0.21102873885176138 0.08638089533864582 0.11282322299199882 0.12509156547381017 0.1528978495092346 0.050866561248298706 0.1346081603755077 0.17787055056665835 0.15560390353379283 0.0897662301343899 0.12094007736956458 0.14486601820043207 0.10991172131830684 0.19294882401012112 0.17860286885055515 0.16308446035684743 0.08123063054096819 0.21040587867712815 0.12447888675334666 0.14716846626032196 0.14068925000085428 0.20685742328532528 0.08148277765351869 0.11222971161751503 0.0625988431586123 0.15017735065014035 0.1793519495824874 0.16266619254137446 0.2008936274590363 0.09490625850371019 0.1772472957737595 0.099407256738023 0.0941539036594295 0.08528118467130638 0.2376936128588626 0.18001334253920426 0.06088360080379756 0.2230540015948966 0.06473092842641644 0.07401700979570024 0.06556093049146343 0.1031045126636062 0.053125074442764354 0.1279003457784535 0.13768490735214334 0.06833377750847175 0.10564115256930708 0.13150550206172412 0.1194116041912709 0.049065967558009294 0.1820313119195732 0.14432704954609207 0.15450459076117026 0.20450167330831423 0.041435472289059555 0.07235559967519604 0.16949170309050773 0.06333491895387527 0.1634754293467495 0.05484147328598559 0.08675774856796972 0.1186841751170132 0.1666833269437136 
Methylprednisolon-16mg-Vidipha\0.0823536822373249 0.06416681112120347 0.07727858856291593 0.13545653536041039 0.003975982845383315 0.1517292959497475 0.04928680344218142 0.15259948569813286 0.12833803854942993 0.0226481679859912 0.14236863965710775 0.13793865299304944 0.12332673041304541 0.12238192429776394 0.14525146333494254 0.12052077368029633 0.09308342563290987 0.1277651850020302 0.10578035790089395 0.014757828320712384 0.061006482831175025 0.12692003512414002 0.006680550915967829 0.11049284249503911 0.05263649890746758 0.07145049085722253 0.0867631573068933 0.10816418015981331 0.015262189704452834 0.0532385568843072 0.12852453774142175 0.06758719964284592 0.06029928791985209 0.08342031839842678 0.117364002553046 0.09571237255266145 0.0181261487815667 0.0020727084624933864 0.11625815351777467 0.1271175978440945 0.05732755258478727 0.025649088732991387 0.152555534888025 0.09113217587527166 0.12580926975147635 0.08731961049812408 0.05198401653822097 0.03967914569538091 0.005392645245589869 0.034941371850605425 0.014941023429458602 0.05930775890009237 0.08468870880825409 0.14325026324567808 0.08650354115804287 0.06781137133202246 0.03966532586456559 0.15341156442192336 0.04884672698618272 0.03348766510601608 0.14546998724877752 0.04602402722207901 0.07453908181168258 0.07367430922094625 0.016233105240466086 0.0628823048439582 0.055107349772201095 0.05571684578792035 0.03221749735436845 0.025036829832035624 0.06070035835917303 0.05568814360797869 0.010699790040505558 0.08421116479887383 0.030721208762276637 0.05041634516795697 0.14242752913908951 0.07387118239995695 0.09444247508960847 0.00499228449518558 0.12274748246103075 0.08865227275870605 0.061810517160070515 0.059495778909771986 0.035460791892236186 0.13135790055551386 0.014924146439763128 0.11236002880413139 0.15148251686374603 0.020147826698168267 0.10554264701273625 0.011667592387353154 0.037357367670546426 0.09825578225456592 0.009755370684252434 0.005620220512195051 0.10468832168998532 0.10316259556681416 0.060686981053024086 0.10503885474943274 0.09257448743099234 0.0830491400155689 0.14335081432825236 0.1271897006663406 0.11947115417432545 -0.0014389845105537854 0.018882878793344347 0.08152220978233596 0.119622128312838 0.04018531462060112 0.1354377245417588 0.02635095258509187 0.006765797993675268 0.10078137725639277 0.0958157847948304 0.0780933538192639 0.06803324004793278 0.11708002204185183 0.019428165157985403 0.074161616983 0.09983892369254414 0.049471534071802666 0.006205398679770425 0.0896785329544222 0.1186507975602735 0.07611393149852017 0.01678987931016221 0.12049845695454806 
LIVOLIN-FORTE\0.19326314712804646 0.06856728630944452 0.1701937509983545 0.19196597004174962 0.10098338349566885 0.11843956274891014 0.19126933872389254 0.13203120690520453 0.09885665118807804 0.17843624864329732 0.11695899323397088 0.06029803207288646 0.04817383876815799 0.020862375274000082 0.049247060239039984 0.18108711027760457 0.09919756391827207 0.19240575272539887 0.13987814144812588 0.15053683934592896 0.10658542636576196 0.18790918107919521 0.10773640625341563 0.1269594917328696 0.09034458748908981 0.16435035718070076 0.04271357289188232 0.12714837038045834 0.07180547026101425 0.048449201482659285 0.190107675610101 0.06708027174180303 0.17941139256031788 0.08825555548521825 0.09696619408325692 0.10243461961192224 0.05692543929449003 0.225216097482745 0.13669253037910106 0.1660826507666938 0.18983542481355706 0.1512739496213951 0.20044430896604126 0.12882571590059597 0.13820689503993813 0.06881911278093228 0.1483784944145802 0.09009859620553085 0.167618103324351 0.05826891024304737 0.12312944141776769 0.07824704593878339 0.055690063489913164 0.06180061931349461 0.043622711949475194 0.13316886560718846 0.1424436071714468 0.1854280988003419 0.13029694036376527 0.06724300835528152 0.05125879521590063 0.08120204998348264 0.06700121490631118 0.07000771548894041 0.21195718930231722 0.056390189423399135 0.12732437470484032 0.20355618516454252 0.057827503900811886 0.20638246267852303 0.16532597773226487 0.19261130765868298 0.1409139899683642 0.19953473687981346 0.0812388541831514 0.11777529730134809 0.07022681700257133 0.16094486162097726 0.15859859146807095 0.16305778429268536 0.059339613237830297 0.1768467859089251 0.1729450840370747 0.14908684524805396 0.07483471984604993 0.0855813761288827 0.07872433887895325 0.14417970809572941 0.03894748846462888 0.17191198056092394 0.13316098352277553 0.14398196590228454 0.20337035745424398 0.15838105324498972 0.12269409927785568 0.0867843549007445 0.05839301691968102 0.14368080735622746 0.1690300973656264 0.18182566819935084 0.09612052042066997 0.20681288741379517 0.06420218839694862 0.08553969076371977 0.08544810422276612 0.1439026287827271 0.05770570283849475 0.08791311991375439 0.10779249554062849 0.06125601517472057 0.11801255350900237 0.10579148173991539 0.0874235330288363 0.19907025432736516 0.0999226109303145 0.09983234166427787 0.11556465093173557 0.20439115583142436 0.06285216426699242 0.07255750662963423 0.17303444570894622 0.05995541036304895 0.0716266033587061 0.09179448622419864 0.14644908088586867 0.06332432604279546 0.14368027792061752 0.1435518045042584 
Acetylcysteine\0.14631468996402056 0.10228029993590212 0.09052778229706104 0.2039795020910903 0.1626591636130599 0.13091634042185157 0.16583939636317166 0.11571316171718318 0.04592088227933219 0.1626902664600258 0.14533272923063917 0.14287003670175616 0.0660544309093237 0.12667567347016193 0.0798926752895564 0.1638410347831166 0.19938559282719517 0.18812079534749357 0.12478904439956258 0.1888447863529212 0.05789999578895935 0.17438405089108025 0.05364635645966029 0.19639885916038535 0.19638177264577558 0.1539211566466831 0.19334754860733824 0.135279587899318 0.12906723584212954 0.07397252977118823 0.2288581127253624 0.11550531661708986 0.08918405053156667 0.05187378196387581 0.1366873099702909 0.14327555686472468 0.15496163598769927 0.12837880741132238 0.06795580901879142 0.0831571156394169 0.07774901189316526 0.14564457983615095 0.10886754630846676 0.09452471781634884 0.10225878105188702 0.11827211468082259 0.16290270891880265 0.22753444783206628 0.1342837126949337 0.09470513089434575 0.11708880795633904 0.12460226434120235 0.08443820645363322 0.05813201805307941 0.17779219762867646 0.11933597428572917 0.12989662246648717 0.13236463267101617 0.10886973497892534 0.12187659603505302 0.15526775106029778 0.17957118179679513 0.1732965767650414 0.10127536718289894 0.10590800464535259 0.0693533599549693 0.18394186866592493 0.14152941449210477 0.12557117985988964 0.1503537208000987 0.1908666119062512 0.1935867687984499 0.08392384085267568 0.1350413706666698 0.1305993200774312 0.11099937573905913 0.08421228289744621 0.07274575058642176 0.1963834758771448 0.11395379580865948 0.1250166395108475 0.12874826574880904 0.08113486935503707 0.20614072990869423 0.12821442364367427 0.15868247168586797 0.20228346865080352 0.14906958520468236 0.1382178822450871 0.1892977846275142 0.1705184771461063 0.10169332105247915 0.1349324177003915 0.19264410100248114 0.15910684362969532 0.15940729955080724 0.14842974933352632 0.14128155753750726 0.10057224976200337 0.18453672147373484 0.18581705894576914 0.14704641167512442 0.06773343089067485 0.1465789337585574 0.18055492189860148 0.1763256236363355 0.19959964064689492 0.16723920288022967 0.09472081148725907 0.09631727559780681 0.07219156759980172 0.1269107567515316 0.12841142636644962 0.08139227944438569 0.11875583993730575 0.20704926115605576 0.1274797053383438 0.057086342046301856 0.18335365901219594 0.0869035321799433 0.20954609903740923 0.11073621889932966 0.09574443107785678 0.12576726928553128 0.12081874271534837 0.06618543184873119 0.12113388514018295 0.11726222575711298 
Venrutine\0.1137984447809836 0.029647613909760395 0.03637547336179428 0.1445104644946733 0.1513990115177847 0.011048902088645276 0.08614905550916599 0.06987851913767314 0.1737336918066662 0.12873335604005415 0.08444155775780261 0.0753580179735169 0.06652659734115834 0.13604994612052693 0.10151714927282172 0.06813776234447905 0.13790929476160377 0.06431230641521456 0.04045216042616854 0.024399523533688575 0.018122630282521344 0.11761844956634787 0.034112763673895846 0.10805849619196194 0.056778659207282055 0.04287026414365151 0.03699945212452741 0.1692297880480918 0.07938875612009327 0.09013013679369836 0.12471115764638835 0.060687230002481225 0.062385515642041776 0.05539135884525688 0.036175256107680805 0.10054173085963869 0.0773065508303277 0.19097012226612167 -0.002241155768858313 0.16206967354794719 0.035143178860447793 0.0716073499857887 0.18855152351919155 0.04357312519443588 0.09404502224377666 0.04530118497711807 0.1792043199665242 0.18691314570066955 0.1746561772895605 0.06149429409248899 0.16664025966153045 0.05153732616741521 0.1553392416755896 0.01221211272003329 0.03437003663392713 0.039254457588566494 0.12989230599704601 0.027412891748416362 0.1699834171907409 0.056381855199881634 0.012992250441607582 0.17208430994356338 0.13033068720549754 0.05162690444284103 0.036022916917366046 0.03589719872904568 0.16057779035636793 0.02235795257475821 0.10327267855132984 0.03386708696588784 0.01887946353686022 0.042546284881538686 0.12204950577640387 0.09355106971431092 0.0665811189305529 0.07551054775772857 0.011518141846828055 0.03142128255288136 0.012996232336786958 0.11484665050276471 0.162971249309667 0.06523671920742115 0.1442414936954463 0.08838750837606274 0.10639596901868563 0.019892850512656338 0.04945572272817372 0.10988838888809238 0.04855526152048863 0.028172731727197337 0.019157913855253145 0.18029905422081371 0.07000725544173156 0.038159757619080144 0.04246016799807034 0.0712217645040339 0.14401982792035753 0.1604054985730678 0.039875680910731535 0.17275208326287753 0.16396451393864261 0.037991343025670844 0.10313038165695426 0.12485942838944548 0.11669238866709636 0.10402010430371424 0.0690175884904805 0.11993376386436948 0.1451961518733987 0.01371545211916288 0.1493504825757155 0.02749974287560566 0.023111227894257652 0.16741796590049227 0.17147980000896057 0.022822371735383293 0.07630498146798886 0.03141529014949757 0.054022052499472534 0.15978513753457851 0.035421394555004745 0.06952147728563524 0.06614750240120985 0.13816154952165996 0.10351353335678386 0.08862322367687064 0.16110602224549375 0.08472840760293653 
Ebitac\0.08336447799497719 0.14158372085938928 0.13699853086191965 0.04113395705550114 0.1308809685626735 0.06256216716071633 0.12267787596789505 0.07767953385229738 0.02401091396324777 0.06194142887155962 0.03523337599709382 0.12400482623851433 0.0011626900078204017 0.13588205560235483 0.12189336019588536 0.05931109522982652 0.02026164503877586 0.06857864600303261 0.09009907735061405 0.01274058310174125 0.044405829167235546 0.138117490660081 0.010064444216014113 0.12494205426266883 0.12998280020987463 0.0815554982398993 0.14787829815100595 0.07770542394585554 0.012696198529873982 0.08486604277445489 0.03619253804018347 0.14730386764227588 0.040519586101144936 0.024285818839138558 0.045337982546087056 0.14124141912822058 0.013570675487954539 0.053980601586100796 0.11352985627918587 0.003343798822970269 0.029903112591064655 0.019548584856685914 0.051703118730235774 0.08724262469661458 0.09306368870999639 0.008569915216725265 0.018799249248964766 0.1213791231057508 0.037326284788765325 0.13517000876639518 0.1452266311881672 0.07407563333873099 0.15348647666919113 0.028102266445641698 0.018311745077110704 0.07019037927598194 0.047162412224768115 0.1069392866872008 0.15290331181784064 0.06017123676587947 0.1339793353032113 0.07105527486788633 0.15146536662339288 0.05946111423482279 0.15382538490815945 0.08421505508762382 0.016628830069564404 0.03381168609975604 0.11943239289709907 0.15182772910653874 0.05401775784329874 0.0394902082242992 0.06624084412486615 0.028874635991680532 0.07616034951091825 0.15168261618850346 0.1414416398504407 0.09328235804137872 0.03035678657104108 0.1057419043439386 0.015214917685133647 0.15919162348644275 0.02242210172354077 0.08789542760209204 0.14468937312990227 0.13527867627768383 0.12519371301872181 0.04684580553858567 0.13214072712145694 0.06615961867714289 0.019580804652133965 0.11877676245861979 0.04125150660628742 0.042508426484574036 0.08446733860598656 0.09211139133934663 0.07489401111829537 0.08025356118163149 0.041419752845909014 0.04297361910817865 0.05252113693049885 0.1250624277224171 -5.8138482991614495e-05 0.045421611966112906 0.10179923329239654 0.13039466098850291 0.07628222433381707 0.13305661995663937 0.0245080774580001 0.1454222218101051 0.02336173032776119 0.10236028140038683 0.0729347510324456 0.08684620951987018 0.1277680941149374 0.07099444460731816 0.15118160997116192 0.032170863644688234 0.11780333151099766 0.0794955220471656 0.059006602738127543 0.05852424274689609 0.04709553221702218 0.14723762951284214 0.11422061137625225 0.07497120088337308 0.013322960065675729 0.061916439001233496 
Droxicef-500mg\0.2855030556335479 0.15772117141089334 0.2397985604404354 0.23523493101364798 0.3208590819108654 0.1773481414218101 0.2724645606838451 0.31311664790600374 0.2497702861943052 0.18639585387427887 0.23341044545144096 0.19175338905768213 0.24430601785803685 0.18300984933081615 0.20831740746466487 0.26349149756222534 0.14219223363639505 0.3008390384824624 0.19600289815759211 0.19111020077556842 0.16448188811945397 0.14953454430147795 0.2595800112815579 0.27148404443732754 0.2387721522753877 0.1596672155847291 0.2726042817644212 0.18983625278354596 0.20930329128080485 0.3112701072586052 0.204385202556026 0.1640267233928149 0.23040520370709483 0.30223798905576693 0.2215690858381182 0.2455501378296254 0.15777866892984563 0.1785422941589382 0.2585509986585086 0.1607920821288281 0.16162271970922318 0.20748965851085935 0.21401322792329838 0.20465887901349875 0.22885876938648037 0.13844568973024246 0.3082964500500941 0.2400785827629344 0.1510666531092782 0.2678167058392862 0.18730295644779663 0.24258320528039543 0.2013547232061501 0.1792535267709246 0.1835384391198319 0.16710399862343633 0.2698565252720355 0.2132959008294433 0.1613923316054171 0.2864125782894101 0.23808081871871686 0.21758727679036638 0.2980910738493692 0.2480331458802226 0.16742530873264114 0.27437915543013897 0.2821410386838072 0.17635963899649384 0.17845761140873556 0.2746354943185094 0.24482380603428247 0.26874757075556327 0.3111405182642399 0.2593014149724278 0.1502121568318657 0.2600372689503307 0.2222776154357519 0.2974433399943555 0.19619103054116932 0.2387996179259384 0.1852997748549382 0.2705719385258306 0.29233138006320414 0.21686261407737034 0.32204051335097467 0.14218626759182548 0.3164830646217187 0.2310054219815224 0.17026824860507553 0.22671580760316642 0.24469665757017828 0.24323122189520505 0.21855937345988632 0.19931797394300915 0.20320811231641947 0.1538862901806957 0.2244396960378957 0.2768578834637027 0.2049399203430092 0.1418352097182597 0.19904927254771526 0.2216242214202124 0.27614856418065364 0.19608796060654604 0.2527705529269819 0.19293552650836646 0.24916703840978127 0.24509298555102974 0.17762985031216647 0.2170684538901208 0.26941246152996673 0.25986285045830027 0.2472946013140759 0.20876683259667142 0.28705163793283994 0.15437980127407452 0.25393776073770147 0.19632445747119975 0.28830710054185177 0.2793156962900338 0.14798610605960766 0.1483408181854194 0.2246754586745579 0.3262942544669801 0.18102558469235863 0.16200525550494793 0.2807403477527262 0.19084891691211456 
Panactol-500mg\0.025408772733781563 0.07407008810480373 0.02632199268390413 0.009031709897537083 0.07837544718693888 0.10103473668777975 0.018033880129494417 0.106154156869673 0.05365309307687028 0.13070320105067865 0.12723471254734756 0.1106122573883556 0.13358557668717766 0.03646773452716245 0.05876807315941257 -0.004148314307277355 0.13174420365913758 0.13224592889710263 0.046869499612162704 0.03614724247936816 0.09201955190256468 0.027548383816532372 0.05118321151070672 0.0542501362573827 0.08125021826470204 0.059771193387149056 0.0625330829144648 0.11248115986144244 0.14200842444368608 0.05488875150833742 0.0851296893532604 0.0846506564340852 0.03363644644850926 0.09732874593613908 0.02771093251439301 0.13235272683686025 0.06969397586235997 0.04061691390304684 0.08095708520192148 0.04364712862525073 0.0013220182490341452 0.12834568375155378 0.05317409281165174 0.037533244941914255 0.10844284176509517 0.053835868794180314 0.1446090243010593 0.003221007701547737 0.07596907138212827 0.1329061755542296 0.04062294258110731 0.0008856194335847694 0.0718245576307904 0.11331720827621806 0.00453445962464331 0.03674784278657488 0.08922371190933284 0.007774791772093213 0.11990492878736717 0.0469640687833273 0.1297297690716124 0.060069284648417265 0.047751825151498686 0.03255248195126895 0.12207656460062576 0.0012709553179319974 -0.0019630232047690467 0.004528795749937373 0.12638841125467523 0.06037675562428109 0.1433877130465264 0.037792201613660106 0.0625749324993929 0.08226632104508473 0.0722330281372435 0.046776916740063 0.12088687706620173 0.02681707045625263 0.049586555481858974 0.10142495377481484 0.1472084211408412 0.04555190866704238 0.05377956833447353 0.031597691703738925 0.004857835065193971 0.004257795392197708 0.016846611761190813 0.1065532905752038 0.015102926494306933 0.09587811960254654 0.08399878219706343 0.11559833533690807 0.10534503233966726 0.09649100334526446 0.08941290563781452 0.056950613416461154 0.13128445223893087 0.004163486852270642 0.07684838488839858 0.050191372107324835 0.08834158240738502 0.014575903939487869 0.13188258022196744 0.06064300674221277 0.1246907864001754 0.0272717368944998 0.0656133068856057 0.10013384884603327 0.09331992484417088 0.11325062211075412 0.0024874998136440005 0.12862018051643273 0.07128533938172844 0.13186996840699558 0.013935327451728066 0.03350417463980005 0.12912867338687056 0.044816509337342 0.14089114377712605 0.01651926244683337 0.06573800640025954 0.14472714928167474 0.03449285965855252 0.05379906730429347 0.1375576053843365 0.1469185630593597 0.09197315487206545 0.09075011505109251 
Paracetamol-500mg\0.09369085749405356 0.07995893769484852 0.09579585432693372 0.12860229084673325 0.1399056947101517 0.14510057360090212 0.05047397800020342 0.1495640192961191 0.09123221446097955 0.1834248242598395 0.12630859177201947 0.1374619003997712 0.1162343467158363 0.17082184207070453 0.062296285337063426 0.046038978475097074 0.11847579655249042 0.1717207985208603 0.05322234953359155 0.09422244338766764 0.1606912927123014 0.060781921592418846 0.09512852981171903 0.10520293526651162 0.15272647791302224 0.0474431091946438 0.11407851391976748 0.15556975039692578 0.17833792554183733 0.1736036781021913 0.08658210594126997 0.035292640682459575 0.0888957500713634 0.09382475713517346 0.0933021612091897 0.17337634426323845 0.1290129198807098 0.1715906472855146 0.12031995722585317 0.16734026157929466 0.18054166820583328 0.10871838841657051 0.13554577672175286 0.14088901997115869 0.06579240654788826 0.16547429732511795 0.12970464849046714 0.08736324530399388 0.11268390138844063 0.1133723235306407 0.11633547889180118 0.09255744005521985 0.024109796090812104 0.07334151063231799 0.11710285417574955 0.09190953667401361 0.18097814290371148 0.18077478575805475 0.032008992264599884 0.1415699971476096 0.12686635644851335 0.10141363728538585 0.17608628139487256 0.030597197154322894 0.023079019108969784 0.06150391572533812 0.14055964672165108 0.09679712479540795 0.06874554698606318 0.1113235342888263 0.13127742476765078 0.09658035460244198 0.10283693749056277 0.07679640238883183 0.12722514603583274 0.04328401286919756 0.11716412952339607 0.07611074491884151 0.12832488027811467 0.12005796871137442 0.12362863659778742 0.08948284603483503 0.12220490767868485 0.12190653611059993 0.19054587860822786 0.09781307631536416 0.14671363564624484 0.031705355482746465 0.08842585056439255 0.020612161047490644 0.07614475588461336 0.046587973558499134 0.09621653091520559 0.15263067521103835 0.13989624756054994 0.06393754562672416 0.11182717003380847 0.06591614784389577 0.09639969364380022 0.038375105072352325 0.11183816756251945 0.17180341282830433 0.11682863491154936 0.0726356643533245 0.081630427030177 0.12041518127577436 0.04629542429158399 0.1027760772419103 0.1204970698123406 0.13719792678814566 0.1525489456251475 0.18136783031746648 0.09920629114924756 0.07845335298288879 0.1827959216287648 0.15732906108600608 0.10471240922346439 0.04521958370078516 0.07945206708321556 0.15541279476764375 0.16307304906726422 0.060277329045267426 0.0435266717847625 0.1946314480672744 0.06151911361859169 0.09979864696087515 0.16598566376213864 0.0363851944216052 
Tydol-Pm\0.10076272293914476 0.12573650988503962 0.12565687438176182 0.13364355821256976 0.05900791980527761 0.16729934117690698 0.16254824346798807 0.20119204871776106 0.057602017233153 0.08103614667397697 0.21118589994999445 0.17629984640760266 0.17717727572798417 0.11816292222832163 0.13836875381601058 0.1978558127603868 0.1275538028316228 0.07692148252337053 0.11728320367523304 0.1636299969125239 0.09166980754064424 0.16842951606820591 0.1329994786331143 0.08762041184334764 0.07679465568188751 0.10934764614036621 0.0861548052553831 0.1273730596500546 0.10444248298966041 0.18279250577765568 0.15773751067449585 0.06973310429341248 0.16106471137001047 0.10689655124743119 0.169563102250224 0.20060241882792013 0.12662566855459997 0.1423489136774817 0.18985358696087687 0.1534770472876809 0.12323570658971468 0.07364712711200956 0.08369156914994537 0.05985216631058188 0.1296303887743235 0.13042040006106412 0.11027405713302817 0.21257167719322106 0.11627042970250773 0.1076283026372378 0.07276947292223968 0.19506218051099494 0.12786506790367996 0.17930472007618833 0.19802164432086072 0.12676686686378383 0.12855999273724397 0.06316666578872976 0.15715852565684263 0.06681112449588046 0.11703884486275262 0.11920777903607048 0.11058745148436072 0.06979695782049183 0.0865717706319929 0.119445002835296 0.10850382864943388 0.13192681770932405 0.1131220408667894 0.04590927304701349 0.10223128240007623 0.09433848203851142 0.11161766388851976 0.05206583096999196 0.15679649928045453 0.17042958540827727 0.09277486973822664 0.06828962154262416 0.1696810901040309 0.19532497843625116 0.11410864156151408 0.16605047545850304 0.09798382777114148 0.07201062048491381 0.11615238535346502 0.17597997807542143 0.1821744209559098 0.07347101327643132 0.049804704031682766 0.20121030265456316 0.21133366219548894 0.20859087910324986 0.21809308550730555 0.15238717307185812 0.16995069462531553 0.07946937906898945 0.08196093364576429 0.16581797959717806 0.08220798651760594 0.06776848315433519 0.07886315930450169 0.20954566363764 0.139074603581717 0.18010944824925829 0.12016128038083619 0.142752587929378 0.10093897516346527 0.1691936373862756 0.07958908509435252 0.21219961519272776 0.13721379862646782 0.1989671362723059 0.0807603565298233 0.13942249098903464 0.054317347019129686 0.08805584460304593 0.10707120111560059 0.15291689492501342 0.09438849776554539 0.16975397232926848 0.15275345389287823 0.09627154427647494 0.05193696033758819 0.06960081882664468 0.11841408230664377 0.03573472816487385 0.17318579734855544 0.19670158901088738 
Expas-Forte-80mg\0.11848457415022251 0.19015133464404876 0.16494712244943813 0.0975505799881694 0.07280520348781046 0.06161883831099837 0.16322538510315726 0.09865378512231614 0.09112928991360342 0.07494064154869065 0.054336497882594974 0.17081242216160605 0.16103002980462733 0.18300952947515425 0.07916099267631282 0.12850338819224322 0.13956071918519983 0.07764879173741696 0.050884475389058034 0.05335562450467152 0.09745987306881308 0.04432886418740576 0.1833525197873199 0.08530496887044207 0.1427491515138893 0.08035331429045375 0.06808986409760066 0.1830181987475458 0.2053154373478653 0.052834710338605526 0.08262289124826812 0.108611391034442 0.10235533557352293 0.14550848394849683 0.11558146820239176 0.0571834904721403 0.12391947402533782 0.12114106017310468 0.024314161606393637 0.1745031176920008 0.10478994001169235 0.057384155954900075 0.08221076940185648 0.0530793946467157 0.13426091956853242 0.1052579015586886 0.19865370861487888 0.10021595636556586 0.11833863283242559 0.06717112464340863 0.19115255143428964 0.09909333532565844 0.15285113040560327 0.069795351166321 0.08995337616987902 0.19760399218782576 0.11427718174100415 0.10571070030962176 0.17060590938282366 0.130697985606078 0.17631294546005685 0.11344670310292754 0.05205772489094544 0.04213016604050614 0.18408819747799704 0.15361216492923366 0.11784877790900314 0.09809797701590267 0.18694646297162631 0.08582553316255057 0.02516594808775812 0.08423934420310325 0.13232586640383448 0.141966325092946 0.1185745563803185 0.1185665682329348 0.10934619157150877 0.103036288312369 0.09573047952016983 0.03131413956969953 0.17559900962960326 0.04421710185573772 0.12148188032010325 0.121120603913998 0.040063067792920674 0.1001397984826927 0.07079520786504372 0.05826267050452763 0.12767191467611785 0.09186503012496713 0.06201592246172324 0.12837146921885972 0.01867282698777937 0.08217312821729064 0.118566429418257 0.046926652090031856 0.14641192243543127 0.1876560074296829 0.13648584992869994 0.06959546804431689 0.13115764103917832 0.14627969904602617 0.059611475244532156 0.11343503760567179 0.15048544018921417 0.04261718767143353 0.07263665526339548 0.18402188072818326 0.1022086772206092 0.030967477901540346 0.11832782579183022 0.03853796527943101 0.1246479931325349 0.12824629977823876 0.13169352380698351 0.0642627146289988 0.08845258231694977 0.14231113571234036 0.018788828761972094 0.05912061182412462 0.0446176474474224 0.11893876601270975 0.16455223632449453 0.12983840609826242 0.19184066498077598 0.173352528163763 0.1009415773353807 0.14758948438693373 
Glumeform-850mg\0.045403484056619425 -0.001236646874870605 0.06283302526304453 0.06773981109888236 0.08335099141189184 -0.0005167801990415334 0.037965655097883584 0.12414965756677233 0.04215689503683416 0.0910228385547675 0.012730306252009781 0.04320613310659472 0.08968145401880824 0.09039579986053885 0.11145775233620356 0.0003442309283671494 0.08798628639017647 0.05136059099967768 0.006596939504748098 0.05958163311358097 -0.0004321263053858418 0.13174358093371935 0.1100849029583801 0.014947702967320321 0.02162338427010969 0.1317876587551468 0.07397146740395362 0.11199768434319524 0.10035348084118716 0.06477055193180911 0.12737108431837138 0.0700531938212108 0.028797383615588538 -0.0005599642963131224 0.09789064954795712 0.06040787479237355 0.06703435201497468 0.04371339340832354 -0.0065377598655300415 0.046884622196331514 0.043885057333598515 0.07619309643138772 0.10812380201310766 0.04482745890360531 0.04242532310838472 0.14387841037741955 0.0777702523614283 0.07843718577979038 0.11247524435734713 0.13454204587121457 0.06524063355473592 0.058394530417400385 0.08881794405337709 0.07621729429368333 0.08869382268829154 0.1431412662693575 0.1136401893124181 0.04597513639246934 0.10298733518884501 0.01971267453199063 0.0854097007450345 0.12682318055795302 0.10917112564193614 -0.004597123025999787 0.05303213606666846 0.00526413550198374 0.09018246562268477 0.10432714936047431 0.016307055293117028 0.07706780380208368 0.09783958401258128 0.12375244558487093 0.12606598376523037 0.07900848424938381 0.12228677682709976 0.09122868125689497 0.05953349212166923 0.09056692258104125 0.07497688507652987 0.08621394948407583 0.11846099126929532 -0.0020968148636235813 0.06637388333699738 0.015668369392401755 0.08521434927059744 0.07877306421410915 0.05738538666007914 0.047218836918763836 0.05242880027035981 0.032667707913057155 0.10887293770818188 0.015558957530538604 0.013422673312508179 0.08539976221912042 0.08606566900645163 0.11830496547483633 0.05281703115276667 0.0652103287856098 0.014576399943690576 0.010023092087125781 0.07195963850830303 0.05305299017031928 0.12736357785731128 0.005160840488620667 0.12988120078531518 0.01935415706243211 0.051969100495378936 0.13116459004761882 0.07983637247808796 0.10035856709559185 0.12319807910845938 0.11167385485723273 0.0665993114806644 0.022780036163353962 0.13088768131732656 0.03599173904679923 0.01791792627477052 0.12406389215759216 0.0907240074515095 0.04537938831973227 0.14159778419989127 0.00581682495682256 0.0614683105280251 0.12711171505339264 0.12705378973651996 0.13892202390425987 0.10721293035887006 0.11409838284482285 
Spas-agi-40mg\0.12609633431415238 0.008683978516504424 0.05032691455227679 0.12755090776411754 0.10813288792063239 0.13511972398898991 0.078646886514501 0.11687088941916798 0.14155984737016375 0.10370210855383723 0.13298351576428413 0.07773630190084832 0.04961302992651043 0.041240083941371845 0.055230136593740424 0.1373690386216314 0.02666156190342099 0.0036177777261997652 0.07564021455154013 0.15042400716914803 0.09643836724336652 0.11149605307057148 0.11783519812223248 0.0544658708005155 0.04497846888837485 0.09054143700425697 0.09150279781975319 0.01105870979262428 0.06250476807097159 0.11264683000634529 0.1067987921101817 0.057368580135708516 0.10201766468871279 0.014191922649996571 0.07932060960866966 0.04839956707406931 0.06717246966437151 0.029422771161376284 0.11184323646937935 0.13251605225140747 0.12186333499597063 0.13074837237391165 0.03138931018679457 0.06097572492314125 0.09860005932158795 0.11128149718617555 0.10333706992929984 0.0037263970837651244 0.05344395411005469 0.1467610362794272 0.14422524154459201 0.07275938615448244 0.15291762394949912 0.14081626677323394 0.06700014074669892 0.1141726910442556 0.039080990313025046 0.10634805010216643 0.12458068273286436 0.03886309133213198 0.06477694436563934 0.11715750568487113 0.035713240015038714 0.11287420167103454 0.09080220711913436 0.092363847587688 0.10141908951450343 0.1408012193111134 0.10479635136976476 0.0929071828741774 0.11791360938936125 0.014084032931890722 0.04070599682136007 0.021171527829208392 0.09505081960584962 0.10489705721631933 0.1372608207038626 0.0025745668841374823 0.13846789086773495 0.03989593920579374 0.10359875759340308 0.017891542262595907 0.11878496759097676 0.15464829789616066 0.03194722430708106 0.1034484137185802 0.0362571520941623 0.08558779720522157 0.057695942817820464 0.029938244201037682 0.13683872824514476 0.0734539731361188 0.14399440694557086 0.12152721016625234 0.07673690587718535 0.09119173858886281 0.018051617436986293 0.05685327099904471 0.1261407724373882 0.0823179997665609 0.09082163306574773 0.10584074899748162 0.020445859522234665 0.023371935177177252 0.053658131977381784 0.047012317262127394 0.050764906058511444 0.0885214539356453 0.07711921755042758 0.05153653288467039 0.030013167302850276 0.08229439197018469 0.0569059424845737 0.10170091700540092 0.12866333847974273 0.10018017392465682 0.13085231446909854 0.10283356327072411 0.14997621326830549 0.09303369283648262 0.12004932026566338 0.1105808376349913 0.0526684111560753 0.00702071435909963 0.007306680769258861 0.04984290510627628 0.044411882782731255 0.10924821937405929 
Cardiloping-5mg\0.019798523564066448 0.03836022188466812 0.04022121497337652 0.04669128174806291 0.15514268637047826 0.1590240779478275 0.021068671359127947 0.13759889393268224 0.008043508831159443 0.061153195548701134 0.05443711757979443 0.057641083744362547 0.006536075722438754 0.04016575839201068 0.14884317137371222 0.09502474792227086 0.13369541658886616 0.040924982324927694 0.06252959191224691 0.016187728422148398 0.02085550869808225 0.07618030637704568 0.10553854382607425 0.15823543145551847 0.01603759668015942 0.07887893264235239 0.04591634190633695 0.1343003720560906 0.004317432700542812 0.14608264624765857 0.10986037513486033 0.06971142597827043 0.030480373797962822 0.07979167527286433 0.03735641317033057 0.0008314928562468803 0.044514788299087026 0.02408901008100635 -0.002536452066755326 0.1112750314294403 0.05892484330046075 0.1446998435492788 0.0199293960620414 0.012509808024531294 0.09384719475574324 0.06596290691441012 0.06863271545589306 0.06145302364154348 0.12073629420491067 0.022967857470104488 0.11163417910690455 0.1114146415065749 0.10331345918444194 0.11405272238567273 -0.0029697402147487394 0.10989449691021627 0.0076429919401306695 0.13301522885871545 0.05085795567179098 0.12007842629279832 0.014816939772211365 0.06945109081671014 0.005923204271186523 0.01721150541233891 0.0991090050477984 -0.0012109468673210306 0.0673170281378046 0.002264278672769856 0.08151476952962301 0.004738587282598176 0.14513632121540643 0.0485763894852374 0.06929455442652119 0.026566598104500395 0.03313928335320917 0.02542958528033843 0.001739504195889857 0.123300028853739 0.12898581433324366 0.12764609828511653 0.1047113329747504 0.0215640439710784 0.06617213823921547 0.07547271785410724 0.12634743368706108 0.1519826339739211 0.09925173113726435 0.05485097945423099 0.014787823071595043 0.13940534467783988 0.04684156701582423 0.11744547291598771 0.012721361792718069 0.0745094399355739 0.10488881741508523 0.1525577261929175 0.009789031716034126 0.012247500638165732 0.08547490313630408 0.06294425614962422 0.13868685059624958 0.10671410962550507 0.10492418886154685 0.03433980947122908 0.0013703282019403415 0.0811125978977301 0.011076814128354746 0.031692368082042836 0.014762674713405456 0.05278929842490569 0.08065895306750835 0.04508086466116676 0.14626536440054463 0.10156759873249434 0.016675932227737823 0.1398588594381358 0.08583787709482127 0.12981225126173718 0.013247063454448434 0.1074988801251579 0.12703328510575626 0.12330892574098293 0.050073914037764775 0.04331695936194614 0.13527320768033801 0.11033550427740486 0.1286338202795782 0.08420194592303169 
Medrol-16mg\0.18988114302818973 0.08310766713442987 0.18232804701142033 0.1472424975419625 0.23273347772488184 0.1994663068668565 0.19267370717331914 0.09435712119037509 0.08254591141038466 0.12641642257839053 0.085516005447412 0.21299159641091045 0.18281896249473992 0.12390524619452016 0.1621888077086066 0.12429840281309129 0.12227955708440133 0.17852838567288115 0.14966091398754003 0.0621095851225344 0.13484369235384228 0.11932167578159807 0.18279400320884093 0.14967839145932552 0.1541499671262704 0.10633858734733324 0.08910642511917059 0.15496252457658846 0.11184289675542282 0.19621862487371397 0.20356526348121431 0.12747012095991078 0.19049959338376066 0.15919600111174567 0.11697014384793925 0.18147382614027158 0.13645516515176126 0.15345036356261382 0.09260018720914398 0.11471457424400891 0.11965269944181806 0.1239272925638229 0.08473547298608952 0.11480597008717718 0.19836748559513548 0.1725238693753298 0.2010190885079943 0.1881943924250022 0.20491692346546786 0.10395531006545351 0.16225010664585304 0.14520131103556735 0.18027801930749107 0.12496147726334227 0.1343384818173991 0.16363895070678902 0.176379592729925 0.2103063923054976 0.15029414896944218 0.10384582653038028 0.16186210321183653 0.2203980055055921 0.1489422664237182 0.08755040763964095 0.1382257468362103 0.13758418399603983 0.1762989944690495 0.18821399353156815 0.12949085171790972 0.1309256712691748 0.21472518369821747 0.09935098467326864 0.18601555276093507 0.14194215286427508 0.2389399844140435 0.11511157333723711 0.06535293175146646 0.05714150150717707 0.18358682000114002 0.09396754572257397 0.1570718877273708 0.18454199524866546 0.1390821667753515 0.09216501005172097 0.10122988903981503 0.20765901576917176 0.1283065976121385 0.10700843415479765 0.15675973679805283 0.19036972454531814 0.08076373500937421 0.1977556397539322 0.2120702622860218 0.1314058294848044 0.18739925216819808 0.18289364472553252 0.13679038986579797 0.12388204576757096 0.186773829314511 0.16352353205856168 0.13290250734324743 0.11517957541676514 0.21476967529803748 0.08509272659220286 0.1609208438960913 0.19621168854074247 0.1346020726071091 0.2049099583516015 0.1783609517799606 0.20249935486016854 0.11494893059687865 0.1893362624113353 0.07081002941897405 0.17407169013361415 0.17049439504418715 0.19609193080088164 0.16075000616807164 0.1940927387548896 0.09895722335320878 0.08710277872787701 0.14001951764265183 0.1637411955987737 0.20003795625724072 0.09536781048107404 0.16156670387308372 0.07212183474305317 0.19577318799955187 0.16363661575200045 
Brudoxil-500mg\0.13462556592783076 0.1255668395854182 0.13875482006566203 0.19753678016692008 0.13184605624444382 0.18449978100214198 0.14825807608966732 0.14421534455708657 0.24019108473090028 0.17862731491059744 0.11523121020446386 0.12052316610084185 0.14635946162768015 0.1946470592775584 0.13562368993070703 0.22588818525373616 0.21207349431726658 0.10609136074288551 0.2242677663931133 0.2194053793554504 0.12824743419822116 0.13145484488381137 0.08139058356688224 0.24599541841560274 0.13868682198450896 0.1878645794251644 0.15053931960745315 0.2136123719680305 0.17269151346385608 0.08161282319747287 0.1798845798606944 0.14924134357993515 0.10910707360201247 0.22047547561018663 0.08842996025627872 0.207226229233233 0.19552747440081003 0.24937767793795887 0.1342725033765763 0.11099862141859254 0.12135974170185079 0.18351746597225338 0.14525609108435147 0.07853166432838714 0.10414323180676732 0.22157675734153448 0.2635087754815569 0.1498813050352669 0.17783252691397988 0.19368078954569362 0.19034283533946328 0.09443027866555978 0.14284877023158765 0.16495176572849798 0.20006511574412772 0.2008510962280938 0.13365342836232666 0.22339339171985131 0.2071391199008548 0.23165912663731608 0.17411561857145144 0.1992601539085071 0.14751246313072708 0.17323107124431475 0.10195013157199093 0.17949705813591224 0.19133425209888869 0.10619232886592289 0.20836827427907456 0.15125834269239766 0.15418523623574126 0.2038544650727234 0.20753869671024333 0.23647340222575164 0.2026220892623256 0.1781091967199915 0.15519199899166253 0.13833122698007908 0.1357487818592483 0.14986360943395574 0.17560086516283888 0.14723003910025373 0.13086132924625582 0.20861046276412018 0.13775667222854862 0.12202752557961447 0.16778746625096042 0.2051002938094501 0.2195622286777047 0.17616672824538454 0.17945553105972814 0.23729072803331946 0.10092737053952729 0.20804070706825828 0.16076501959391148 0.16276678639675787 0.11980546996267256 0.12530933279155115 0.22466809325736317 0.16949081827080384 0.09385020409780515 0.14918160356568858 0.24674048730822148 0.20953884049935306 0.23813108905021219 0.1032690920506589 0.16226737714159714 0.19605465920279533 0.2292381525978329 0.19254414577903586 0.1707636725304514 0.13738634979920228 0.1599331270188068 0.10290299617344818 0.1379415361186969 0.1222264760226485 0.19827400224877742 0.10998918759287077 0.2090270470355541 0.21145677827806544 0.22077998273614458 0.23748051991271882 0.15989034350091386 0.2001345998925246 0.19980409136882715 0.07101076487386249 0.24110887189471525 0.1764367898952742 
Crocin-200mg\0.08832850463113309 0.16708687883737575 0.05810496980852352 0.04290313188236021 0.17347539066573978 0.1430675305154858 0.032288527981900135 0.13472221951973698 0.11683494467475768 0.11919920738201918 0.10772531734573434 0.12488849099353092 0.070483769487415 0.08789483829962334 0.1102680515428302 0.16607112554489614 0.16392689291923307 0.05857153704231979 0.1093862647589243 0.14000734291543182 0.09568207993975973 0.0698793347526868 0.17777618743108126 0.1574209325323854 0.15310037401525015 0.1518678654286892 0.06340490451409908 0.11148898148166811 0.15114599823595526 0.16010001486945816 0.15047702665367352 0.0908254553040654 0.15546044497776534 0.08582195370546172 0.0694948746843811 0.0858627171532172 0.10650070254902853 0.04867797010553822 0.12237543005206361 0.12616180058086482 0.06214570227706349 0.0581960379273614 0.0666982662775974 0.03423796211978315 0.08403054985334385 0.07574099772441403 0.0752290685815503 0.15794291687240314 0.101932444886415 0.08738592504711709 0.13443950961861326 0.15804400155572845 0.12192312490095471 0.055359314261001116 0.16183402942358036 0.12614597609782485 0.12649940798861728 0.16550649181718025 0.14302597192036953 0.09618247225657638 0.1408742528384469 0.1811992119676344 0.08596293596838467 0.12301860372645136 0.07574203756273779 0.0528811129196666 0.044244648657877875 0.08372211280179698 0.1815101561041843 0.05657348702819578 0.08315980551933633 0.02565819061448445 0.06948896337724202 0.17412647786095115 0.11898278121242364 0.04013511526091141 0.12286303135403119 0.08938506052658744 0.09119742774632494 0.1785963358263665 0.13539411296580217 0.04716785072424245 0.18571966249714042 0.10812229483123187 0.09102023625287321 0.02944707084843846 0.14874742880619454 0.15439563034364828 0.04513662182926639 0.11072747445030257 0.11459709301147854 0.09620924827678846 0.04106589537570665 0.034195153534489535 0.03908313663522367 0.07784242994614006 0.12057708254819276 0.04388413070180816 0.0903816966570728 0.08563412528378547 0.08413687338119906 0.10202521151121278 0.16987618544647443 0.04172884431479486 0.18985045882296886 0.17877044263491115 0.1152904712745029 0.06341857443370313 0.16763477308368355 0.1291954104763588 0.07664026079660621 0.039358278329136354 0.15669312781459005 0.16025141134839938 0.027368633803545612 0.1649825637784038 0.08112651707553055 0.08918836373469838 0.03747334096031965 0.10253606842585795 0.06716124369509 0.07116655660630235 0.17691827414614755 0.14806991994684635 0.10386922006076524 0.1179797352897236 0.09482841140586765 0.05610063434802262 
Glucophage-500mg\0.14662076265182514 0.1435673304893186 0.09451773193942728 0.0027726634455442372 0.011774069786126119 0.058786161341147516 0.030724693092065488 0.11988883595153674 0.0582768807673813 0.08875152534029564 0.04222073878501542 0.10063056565804744 0.14008994669180938 0.0070002193468400335 0.14620556710779029 0.15515228214879734 0.022096553157633432 0.040032828158943094 0.040487787252506964 0.14143781728659013 0.15133798764678794 0.07855050978873912 0.0958503958485151 0.056567887590147664 0.1518452829181492 0.0763718545787816 0.12372058489054302 0.1357254554240088 0.10190969796960905 0.15897424201060778 0.15252891641852356 0.016113045772781172 0.09070935371242655 0.0023803235584702992 0.0641017023037302 0.12397019563926058 0.11970950183001174 0.11070142685039615 0.015302990666404791 0.13056618684573293 0.056589539512033694 0.05757622964145447 0.048143428489674775 0.007095065221541892 0.07854429138697473 0.09292070657412575 0.017447862978846606 0.07807765985077927 0.06949939608134499 0.14381091459032805 0.08599340969894056 0.09341427808399566 0.11090240863639186 0.1047094410726156 0.02063036347174718 0.05890107143070532 0.10780346130953697 0.05039422925690557 0.1433772595454757 0.15518212970670883 0.15739541027676004 0.06669759822381706 0.07501453595130335 0.13471174971246794 0.08500580704092155 0.15646876567484805 0.12073656579275319 0.12583910430215253 0.056236690448731294 0.05055637762737752 0.06901650298722282 0.0177967780352072 0.14740911334869045 0.10187495540991702 0.14954266830987428 0.004836525845132601 0.08441829534337195 0.06337617270373551 0.030531440970214114 0.10689111064602076 0.15304391086390648 0.011492859535115457 0.12367673398901183 0.0538761516180197 0.017600101245336855 0.09624071813106096 0.11246796057952232 0.14940080491643223 0.04189204342948381 0.11827255930907603 0.15721750637703463 0.06567624760621955 0.12750378086863912 0.04494808940012669 0.017320643434781183 0.1578353467749597 0.09155749061044066 0.10033316220742372 0.1228676095139206 0.1329561849079495 0.005328697015114892 0.09127643352517 0.10753923663169827 0.11281981726303011 0.07926435180164247 0.02095550329352447 0.0356165026046065 0.07396333645617162 0.060599021484667365 0.10492472625844522 0.09185100523050657 0.01836085700772267 0.03044442615275355 0.01524417369875819 0.12071124744943439 0.1100955537942876 0.08125612067712362 0.10938775252224692 0.018528765211371496 0.00610742893594228 0.0465779039638733 0.052738251954604104 0.011050362336161357 0.023021810768113157 0.1326812380023898 0.07019022608396529 0.10298343803818011 0.05228668738469182 
Chymodk-4.2\0.16107532111874567 0.19420962836079136 0.21763587744053 0.09682165513703234 0.13778425346403214 0.13405163571518194 0.1976073910591245 0.06719192370575242 0.09624063173594395 0.12473790471863266 0.23853227643586247 0.1040461954785172 0.2185532994539062 0.22006374348330585 0.19796536241271942 0.18649861440914617 0.13828006757911357 0.10035887835318714 0.0848497384380523 0.06340196521682344 0.08686277363756682 0.06022462622210276 0.13732223376989772 0.20019964087480904 0.1399326498935298 0.1978413962913798 0.17976186418994758 0.1212705874857235 0.13582271478943064 0.19046296296318366 0.18753169389481908 0.10513624842764706 0.06419634027217548 0.23085810096389173 0.1473682133344276 0.16227160449157474 0.1623054708914945 0.17313569094508482 0.12755961069162058 0.12135017067465907 0.1663829872435478 0.22856551530756947 0.06692932958429446 0.13954957638334345 0.10496121586926639 0.13337099533038632 0.08903734678868482 0.20602676132036005 0.15559431342851074 0.1626724016650572 0.2271421634852948 0.13214496018162317 0.1411604165443559 0.21949162728126462 0.13871362407360086 0.1774012032979382 0.08461931633799925 0.18871082847291198 0.21152250787297192 0.16847208610848602 0.09215636334293616 0.09356292662325551 0.11546336356183828 0.14036518312888105 0.13767494150821874 0.11620614660555205 0.12255530247875716 0.07529824041381213 0.1323690175490235 0.12073820721551326 0.10282399468196221 0.07212215458942685 0.16957359116396348 0.17251649120597196 0.06951708963604605 0.11190448836366956 0.2144931562071371 0.10893748748338034 0.15744029171344753 0.1336722772634486 0.10391482114087902 0.06731910389386185 0.11685728023458535 0.2013694776074727 0.10012220347088406 0.20414202287089112 0.12869505874271886 0.13112116763100312 0.10040952988696321 0.19582070448494712 0.11590347681125586 0.23457119189902226 0.1951092143685936 0.15266303683484442 0.16130505801284187 0.10761635068527167 0.13886097879215184 0.11602905490223094 0.13659970665469257 0.07058569396582345 0.1017073481361162 0.1370475009508603 0.17116945142968668 0.15015215621736688 0.16623281270244478 0.11052529780089788 0.14754882763997232 0.07091825177484047 0.1678707697389181 0.08431092623097239 0.18737750243415163 0.20694225332524188 0.15955083029111833 0.1531131202992554 0.23273432173042735 0.20508765712218507 0.13149206496217108 0.17723557119624614 0.13230455963704638 0.19152355369381865 0.09905955275982682 0.1449645207769437 0.13750336132784674 0.25631272300673 0.07424732325968625 0.1281755293262058 0.16197366246041225 0.20272102363841663 
Glucofast-850mg\0.017302169262555293 0.0594833520764849 0.12582320752757117 0.0644195711158074 0.11850332205845811 0.11414818254582536 0.07879135447668072 0.1400778881071301 0.047423969832065004 0.06844214744988918 0.03138504604352164 0.049908837448988184 0.07253944767512359 0.1102861465829153 0.01302634416817752 0.13906190820070669 0.03501642063314859 0.0479104527881216 0.0792535081331886 0.004477253514892247 0.07894015513646423 0.12105306072710065 0.118590419138175 0.0631595401272999 0.10204126878095386 0.07574463094777459 0.113846243616198 0.06317408581057092 0.011759882745524019 0.05110871607632704 0.08883579226127804 0.02589243464371881 0.07667334108346509 0.1003805504111098 0.09988288385947988 0.05443606205498164 0.0512013658196259 0.09173927820246905 0.03304618334120035 0.004016465210810149 0.044906084245926285 0.11156548865928048 0.05825226330988596 0.12081376388260537 0.05339769281940861 0.059383999891366335 0.034477535640516546 -0.004744194822338601 0.02534954416521574 0.04298792142612549 -0.0013208411962965737 0.05462742367207003 0.14527862728504695 0.13736414675734795 0.1397977545047349 0.09560743749881265 0.007521759483551319 0.10164651769450611 0.07210266914789436 0.12940412540971533 0.08619265636824645 0.05309107878804377 0.11830896299220801 0.009499378554569353 0.1465746074173102 0.06068632580227041 0.02715247784985071 0.04397123006793765 0.11172542661336203 0.0553038384332137 0.003174803986707607 0.03868883767761305 0.08864207753056685 0.1230562930009916 -0.0012395458350862195 0.10969300096729478 0.10130832351199448 0.0265391947812868 0.050763720373783724 0.013974258978376185 -0.005266920561319166 0.07490761101065135 0.018225686415970114 0.09368093198633752 0.05835657058966116 0.0766612487669786 0.0414237886156575 0.10029666522863723 0.07620564228679998 0.08104567363995258 0.011862382654354159 0.038756501360474496 0.12867218221172433 0.09888647813396909 0.06586116159255849 0.0857018886049883 0.07994451944410656 0.10425279072698532 0.04466215246404819 0.10900651671820673 0.1092168377465107 0.14632927007316562 0.05282420610203324 0.028583184322521247 0.07697273284872368 0.10447222273013135 0.12123046070066991 0.1018116063582947 0.04619899223182262 0.055664026771882445 0.08462132975305277 0.0319023672620341 0.010285986688780037 0.052422787260779924 0.13630135413877614 0.06437461022484493 0.02500283781388292 0.10090379883263662 0.06609061816734142 0.02476430692964586 0.07209499673655413 0.03543891255371277 0.13969877477186868 0.1128475762510555 0.013025010951502254 0.026043555112983695 0.011472919744142544 0.11740193744121998 
Carbocistein-375mg\0.16840286835461143 0.14294775504214396 0.16080040245442667 0.11176129199194242 0.08011441545752325 0.04110962897591697 0.1188535813300279 0.1633888704051247 0.1294819888335759 0.12596919264282716 0.10975331414741504 0.10332071693324332 0.13810095188000013 0.13517974174383324 0.14677123807405756 0.0941274661934561 0.15784133553721563 0.11497088245249426 0.0590700104046078 0.02260299105559537 0.18113038451461397 0.08965205800456848 0.07623556671992732 0.04989216819993824 0.1345797738375698 0.024476052587602746 0.1346811751068305 0.12041913874636481 0.025245237078935945 0.03849928627922304 0.0704770385440556 0.09427316230355809 0.06916168548781945 0.1646517927022232 0.06546854817502176 0.06572073497546581 0.03568694754363133 0.06194746731484624 0.15610771109355806 0.15367286857408743 0.1481771882185274 0.0363469570866939 0.06998669288243203 0.15382237818976968 0.14204515951979663 0.15521810928614763 0.06962907066732012 0.051604684277482195 0.11094473717850536 0.1554449749870578 0.09539721419725451 0.07010161398818 0.017961864299684487 0.03274658109751836 0.045775042904975964 0.04803407230288439 0.14589706432864444 0.171404023400299 0.08360746999468203 0.1060594950038991 0.11591512196974867 0.10610004919662934 0.13402063794881644 0.11366175863331403 0.09684576760260034 0.0292314705648141 0.11319376985693426 0.03388556729906692 0.06003465521153922 0.08145087722597734 0.03700122357361961 0.03587569558760751 0.0283450188236006 0.11623474812478465 0.12802151419583505 0.14269405262659418 0.10415578943991183 0.1605166994900254 0.1588834037899479 0.12133784938803528 0.07966272642054811 0.08976715675002174 0.04519281562140241 0.02727069727036015 0.14191849531209813 0.019378099456980546 0.10101120152631132 0.06495857635120758 0.15496899286128304 0.008073952615713774 0.10616257687789594 0.12171940678501983 0.14992258465692665 0.12606183628926562 0.15165833682720825 0.10382780634963923 0.05077437060985246 0.11714018596160868 0.07904797494965793 0.054208111981492654 0.10372222795742891 0.1582309549945954 0.07456710277891415 0.08863761939030149 0.10501857635848598 0.0339546783253376 0.09195270590843499 0.061149142000453176 0.02657177279698596 0.04734061607094807 0.05187934541410204 0.06908291250217695 0.056195862570024145 0.023705284645582296 0.06278008031515779 0.09336732981963448 0.09571389737456795 0.1595044958727151 0.13773685316744178 0.06649021709772579 0.12506163617483115 0.05074669313325002 0.1550820410999021 0.060906394280196736 0.05965907939353056 0.12130579913633885 0.10374232284933693 0.12555677507391744 
Loratadine-10mg\0.12092577417024383 0.13411750627154403 0.11894194707525893 0.12080796747432533 0.1313318929876507 0.08340846914963364 0.07829030107027475 0.11484625893332606 0.07897661601937836 0.08391966926748655 0.17667886300766764 0.12041095557252728 0.16718804579563748 0.1629721127922853 0.07807387929777752 0.17868020458884104 0.22363280083714265 0.07562363227488729 0.1702164956114552 0.22418853058764104 0.11033574800188267 0.11898514054642723 0.11685274350190622 0.11421499273717187 0.1969218554021393 0.1770771206376066 0.10822557383698106 0.22915081908169796 0.18972333323673632 0.16520231265297275 0.14205211049500682 0.09955957461150673 0.22945274831878887 0.11624711333717053 0.07808381861489357 0.2149013962762069 0.14955493151757984 0.16687701776209052 0.16758739744135193 0.1427340541314401 0.0759607341161222 0.1603127607985142 0.11772871977621735 0.08401226278291518 0.16833188468852153 0.13325483955928702 0.09108793570197997 0.11910394235724153 0.10442831279416423 0.19037691552441616 0.08169744965057334 0.0989168562641506 0.20477796986069566 0.06816083107619479 0.15768644587574185 0.07252387677898114 0.15754527198049076 0.11342731581721044 0.22313419951366442 0.1446444652654993 0.19059737318360703 0.24075876869582755 0.13187714828938235 0.1872147585859984 0.11654397037607249 0.09014555255261446 0.11467688519287379 0.24850076395669093 0.09423345847684372 0.08394823835420567 0.15662527813570773 0.2060179062479628 0.0922391497601028 0.19561075791167545 0.14607680876845708 0.22385007920359384 0.11099105525502975 0.2153039637537591 0.13822799989789825 0.11267903781719125 0.14096702288343138 0.20890336400273843 0.11014200653780223 0.08259009356941376 0.09414166161792555 0.13397884061154086 0.12493297723283796 0.22062847329311217 0.09037856182165639 0.19313500720697815 0.11770393108053036 0.14734925705023225 0.2077599959158264 0.07432848684520198 0.23367089928961726 0.2122611794657518 0.16871351438551588 0.1169426368227175 0.17624761040347497 0.20188080621642318 0.1570212004613568 0.2021325318816178 0.2007852356078933 0.09243634465621745 0.19038699981024784 0.15681533152682764 0.11244123626542431 0.13146634057481646 0.11132175058833205 0.1320698022413964 0.06084811289966664 0.1357778568722238 0.2337023301709371 0.12456721401610733 0.08310979511851652 0.12808021501216918 0.13351088675474215 0.1275088000007571 0.1040123697461053 0.1801258946637839 0.11077875892189647 0.15106948279960178 0.20137968828955732 0.2325699512099288 0.08780560979355434 0.1329003666501745 0.1923983459335628 0.13532142412554723 
Enalapril-5mg\0.2524326549694541 0.13477430797921916 0.1700835493116232 0.17522325807558523 0.16361267817146932 0.11451818530936281 0.16828181840239584 0.12131146742075416 0.08732982360749272 0.18324428235551976 0.1456018511626006 0.16713302953658904 0.16581661878083093 0.07589332201889232 0.14577242748887367 0.15168378329326473 0.2079958754223929 0.22426308767404557 0.16872020990072553 0.16093527701229726 0.10313941313942473 0.17354754032821815 0.10013842837828782 0.08267866612077811 0.20840352639882953 0.17373886153877324 0.12967664567485473 0.14179788844887237 0.20474723703778222 0.19286357794157152 0.12917107884666876 0.19512734101721213 0.2125553996738828 0.23888027992901867 0.1985680673136558 0.08220550708651218 0.1318783509804504 0.19265435983180304 0.17965366698098528 0.14834626160473544 0.11291706823244314 0.12058608318198098 0.15828349119075555 0.12384500194652154 0.15472141410372092 0.14454966881290612 0.2132202156849108 0.20406095493931697 0.16324817552368673 0.22361355541022027 0.11175658963266982 0.17971108142468323 0.08348868111956892 0.1836529381487454 0.14227536024700652 0.2183327933959524 0.10606271379379152 0.12719152909337664 0.20141369522447614 0.18868030316108542 0.17521234895486146 0.12657894794104083 0.1062697694102167 0.08145828390981528 0.10938047407118373 0.20805187902915692 0.11539374598416903 0.17048163111700054 0.13474750363450402 0.18585685869882274 0.20317405949632783 0.08274040688945232 0.1997717401383411 0.08160399368069132 0.11202127245383786 0.21931924620465368 0.20962591117244572 0.08835301020053578 0.1125380701895382 0.14118982141712685 0.12999897864207238 0.21994442794961525 0.17935251895276041 0.2287935516193798 0.11440373067726796 0.1584975212332625 0.15031754615463191 0.22491208516222103 0.11608246398993881 0.21117785847197865 0.2507407704513114 0.0819720685365779 0.235015887875481 0.13160802132449131 0.09220596968087832 0.08239435037164704 0.15289646334299778 0.18202155173713608 0.17164147500428437 0.18819204137605353 0.20697991424199774 0.20430510016446735 0.16925707807331575 0.15625144339799732 0.21555188835360795 0.19604467773182915 0.1723080344014714 0.11765983918178073 0.0875819020706033 0.21871935811909166 0.19471541682919563 0.13244182509174385 0.20200869295560547 0.12793412242971708 0.19570648367705235 0.2159874752472169 0.0850327584864824 0.14280147765459913 0.14708121864173912 0.13012662842042372 0.21060447624922235 0.05373972335159435 0.1222753854888358 0.14887200737123912 0.18688745545316843 0.11144619989999115 0.11484342904108645 0.11283485640062012 
Morif-7.5mg\0.07290674506743851 0.17740581432350166 0.13905869706573068 0.11935780580737924 0.1259202986727052 0.03134482641647837 0.051585797446738337 0.12914553134953127 0.06088201818953128 0.12048095620781285 0.0901507195346107 0.1284367204745134 0.08741185840349464 0.08882033236308665 0.05979038376570264 0.12651271290256527 0.08387765659903232 0.05548238814596384 0.09127560228849922 0.08477464701974059 0.12849079165310606 0.15433724178952932 0.1606721394287635 0.17440143301246275 0.13295286329245906 0.0659472390146001 0.1811253566584481 0.03728054285837984 0.05295775491845929 0.11183197909355375 0.11797847405348194 0.028894050215501094 0.05612457381669189 0.10211866639501309 0.13540440076439 0.0346288713417485 0.1228878652283825 0.05178571536925408 0.029050280481394696 0.16265043194831214 0.13363884724578384 0.10387102532257983 0.13930518246768434 0.05528353803973841 0.12001503160789843 0.12817479634597445 0.08301226301628979 0.08556782078757032 0.05351043008269251 0.11756154686983226 0.13327551777012367 0.07907562747173114 0.162588666537531 0.14889382875549945 0.14549540908382463 0.025300439272931942 0.15602778644881937 0.03244028653146477 0.1496601198498238 0.03690390423623542 0.1685093963544978 0.15395471264694272 0.0795779514577046 0.09909058776184788 0.11176605678891037 0.06923507586733693 0.14525918644702907 0.06931031620796142 0.06586905382025258 0.16551756102447535 0.14334912131172417 0.13061150043698094 0.03290923368029243 0.07456823414824719 0.15177745370539575 0.1761224695851627 0.1741010296528991 0.05116202197383987 0.05303692852204318 0.12081942245460088 0.1494218892573363 0.16265900273267522 0.1747558454916297 0.1361305860050876 0.0577978140655611 0.1518032532475859 0.12722390330914268 0.15422299826415062 0.04758689096645769 0.1366886435999457 0.0910289338714235 0.0934911739940125 0.1521132739382977 0.1402715658821117 0.13023480078249644 0.07359755785138829 0.12995544614528368 0.06791450277510731 0.06729343097216871 0.08257630628777611 0.0824775332594488 0.1485468662610568 0.16585793366605198 0.0740846262867844 0.13328503985961598 0.11328089907578794 0.1779571767929926 0.12855906482943125 0.07526669185256969 0.10282816159185365 0.17897739494109366 0.1253388587215656 0.12086440302737342 0.07297523932911375 0.13796653314272617 0.1525531574298131 0.09014998312410777 0.14709160377858344 0.14133474738831184 0.15277612548098787 0.16581009220450557 0.016703677444025178 0.03112805773216002 0.09665740141744915 0.09648335558017675 0.11302116465553515 0.14659171704876642 0.12635109553907378 
Acetaminophen\0.10142934100412615 0.11491479024883526 0.012884782231950453 0.14938276156251398 0.07909934357356563 0.12434948465113088 0.047395558009489594 0.020217326519978013 0.1451868246970723 0.006020543279836235 0.07481261022090843 0.14159104130323108 0.08338795011285427 0.13359353530158166 0.060277463235056436 0.13314460539287162 0.08372413075386032 0.14828787425134865 0.060822401170151724 0.11198533822645901 0.03860894600523955 0.14184423739503615 0.10663445067905188 0.008255108896126438 0.06540778570852256 0.11275739947833964 0.01245877815803412 0.11261974169159916 0.12154757848451231 0.06126746069674011 0.011544976020895287 0.09796925344651122 0.022396638083246108 0.08256122157410352 0.0958217004031914 0.08998799409256249 0.07675901296462286 0.12131416475757663 0.1441916945150634 0.07789890920801858 0.09958447443913211 0.1025575620357244 0.04652711145795232 0.08178117917550098 0.021485058259627928 0.013446569652205436 0.052716968717564434 0.054424568238668175 0.05524354290686043 0.013454893770613584 0.12918962307954418 0.13457333950163813 0.11192886596491677 0.012480913659648908 0.007220458483572068 0.013842348376517646 0.14499450612118872 0.029678317070785946 0.08386472261599445 0.03812528524644381 0.12215037939933159 0.1401738722904781 0.0383417097235122 0.07314956130691407 0.1467510611312082 0.0034238175825008327 0.027971419470707765 0.07857797831353057 0.10504505611625366 0.00708087457220334 0.12628996885953814 0.08836342705104416 0.018023137492702245 0.10950460888392395 0.05509057683856618 0.07017867335552679 0.07737248603058047 0.13277615625949823 0.12779923520830666 0.04881187706430971 0.06294626840369354 0.0895313504917991 0.030858488560566156 0.09654858887397326 0.1424815492267303 0.11879080138851665 0.09847865893232426 0.022181235690985207 0.07280594095290832 0.032156991371027434 0.02286076812758791 0.15342502952306408 0.14307906333051484 0.12189531464112982 0.11309827120169806 0.10518675590432074 0.040188986353468265 0.10713308369148097 0.017460964209419214 0.07159601544392526 0.016195487149015197 0.1033826168394896 0.04717509119601744 0.14158534851057256 0.01982357130606714 0.12306227028292625 0.03733881719309135 0.05688756866465371 0.08020482853876888 0.12983707804151076 0.11196735307370644 0.07317160737665714 0.08406307372609947 0.040988647325994526 0.12712122043990515 0.0693883665179536 0.08905423231149641 0.10094593942124219 0.12558861366112822 0.04798254072885772 0.058610503257015195 0.04902927685144416 0.09636624032963267 0.1296638038295278 0.03192206435813116 0.05952005150337354 0.15723105821357783 0.09893866854038748 
Hoat-Huyet-Ich-Nao\0.039201217101763004 0.12172909641149617 0.07263654256585732 0.11898776929437754 0.06449641286394833 0.14808997829449003 0.05267050783231041 0.13175345825705365 0.15968756655399446 0.1291737046832674 0.04491844057437837 0.04021894891736046 0.08925103118720441 0.03973863042617688 0.13754479776824474 0.17107708515210243 0.05256636341565135 0.11383421775726663 0.08421408642188026 0.05456139462610349 0.07485452633459667 0.15779045176101122 0.07984905810976976 0.11830603847111626 0.09262240158053303 0.1413179318894188 0.05992165999524415 0.06775906319049178 0.08427805671859517 0.053771959928811536 0.16519664969479655 0.02946858891494244 0.027461135060324316 0.14210237188775132 0.019018872192588302 0.16744174963298622 0.121206299546305 0.046850863043731025 0.034594034507677826 0.15523273629257958 0.027443731525397166 0.04176093094940218 0.12022803057467239 0.15137921293281983 0.040895621096227144 0.1350501851206427 0.1666119205138408 0.02807728135692911 0.054721255704484224 0.10307284651375549 0.030864491359028433 0.13576840855810435 0.06721768320605162 0.1395160569508275 0.17062692914531627 0.1369358634334469 0.12723140818012688 0.06055127747762967 0.05388211814654678 0.09886335041112299 0.13612829283529115 0.04765165354820284 0.12004017836991032 0.11561985431466242 0.09744789803854988 0.150405239491792 0.0651224598328431 0.07011844285414759 0.17148867029892045 0.03980687017735105 0.09460164277336658 0.028266971866062886 0.14198307545783645 0.12451576056026441 0.15539261022208214 0.11637091817827991 0.04476744380872241 0.039645254140556835 0.11573084496506546 0.17142033772140294 0.021849294300541087 0.12921146593113986 0.09095289962420736 0.10072276064362215 0.15856578732963103 0.061292283892650685 0.0813816403916476 0.10386248267603618 0.022337100550408072 0.15191344412357602 0.06512558918798148 0.09349478104429783 0.15228033300078872 0.13965788370013021 0.029733800241840073 0.0195935257572166 0.13991937056891257 0.07723709713734458 0.11021401971118647 0.1624671067231618 0.058445065231059315 0.13621651067216783 0.011597564105966433 0.10842117531864902 0.12187277028355051 0.07108689348697124 0.09896474349128064 0.15403807892384772 0.13977641789059236 0.02258799428041103 0.06778794148777997 0.11877945850455914 0.128937877631438 0.1286494589784067 0.09172744415644696 0.10682821741018196 0.1333097755593968 0.08098688520319752 0.07252517522853583 0.036169058107400134 0.08993171644500385 0.044598548610503164 0.08650695087842265 0.06779210899020137 0.16419731998374076 0.11390234532785161 0.17603705127012548 0.12729221895719584 
Vitamin-C-500mg\0.07317034368550021 0.07138083239156748 0.06486384597899533 0.1628323766205287 0.0475832120249608 0.0925564220093707 0.006848109679413966 0.06507728806436673 0.0689929567759409 0.06680031425061413 0.12090503945443137 0.09058242672240506 0.06529708665727803 0.11688085920969159 0.051335647779497354 0.031258227164658356 0.06435127046885235 0.12732807187573295 0.08201135418736732 0.03167108094305114 0.15379642082056133 0.1564393108032167 0.11506378475251537 0.12411241230274685 0.05226988257263974 0.08874685879390445 0.05063952944510637 0.07011144723932684 0.14453559785725528 0.13602371924645248 0.16116590074533946 0.08842820110126444 0.0833707982667713 0.1554641061148461 0.13525056237080954 0.02605572361087218 0.1780349732313195 0.11484161186521455 0.10828153237235075 0.0317267040781136 0.05196574456229523 0.11422135584503032 0.15951289509509964 0.0396120284795229 0.04165712324146108 0.10426975474756384 0.062365306965495644 0.036207792999678835 0.15975839533988784 0.04875696351758536 0.019328835619685215 0.13292055658542376 0.07516075326900332 0.06188011854290098 0.09121821993916596 0.07399874697070324 0.0922633008637248 0.13782331511006932 0.09977841534121719 0.12937077136015873 0.1370742891061391 0.11879620175372312 0.12772557445802987 0.08545402086051763 0.023225226249368604 0.1033592068260738 0.17085346660055553 0.10255458275958199 0.01751699542452506 0.1500290422956678 0.14958633750104675 0.04861844240059066 0.12568574879997804 0.12121731642723237 0.15207923579373794 0.07311318267193066 0.14470049308113025 0.06593432311047151 0.15859343193649492 0.17282297569079366 0.08323068816707355 0.0815350107240192 0.052411449237211076 0.1067621632870177 0.15997626584682026 0.12820608274699966 0.1571868570920816 0.1301605953256003 0.13763096214227574 0.09115540321837795 0.06823493332307204 0.08422334729388646 0.1692875895360256 0.06653069763973012 0.18200088136050604 0.07285466298210695 0.09868431139793549 0.04925800660921967 0.15112878321325443 0.1294859129179743 0.08858002560016202 0.15609963590114037 0.13495041964149265 0.025487762281262524 0.14044583408596636 0.12945870061907308 0.1776447598823892 0.16750234087807506 0.07250772061993248 0.030309081839241966 0.07947252404043466 0.07649727872099095 0.044793937448626 0.11494612516614967 0.07414939713147795 0.08354263237817594 0.1567930681458435 0.09109539830252616 0.12757108401429723 0.07607140326509851 0.13409949007002298 0.07440306517993801 0.1566126790110153 0.13077262298902995 0.13176591182323802 0.04528856905590121 0.1440278869403223 0.037479656499510815 
Panadol-500mg\0.2964493166988184 0.26719483216232826 0.1596239846640146 0.2564945873553453 0.17658938277984504 0.1599049447814771 0.2723573176739404 0.2993654332407603 0.2984078511275724 0.22437929119728608 0.3142799889112497 0.22782875760524549 0.27355081193808656 0.17107689685307886 0.22919519845249706 0.19117421829793657 0.24909345734410654 0.19945823080727626 0.2462533067524984 0.18836879525477612 0.23203200540154345 0.21970970133666945 0.22501666611868507 0.23996860269403067 0.1769649881754491 0.1588021812456226 0.2087670136405005 0.1719718952859249 0.3090056943263518 0.3102473529308515 0.16197802962954846 0.23236760929420883 0.18911694701254764 0.17199406631613182 0.2624365005538531 0.2542702355439049 0.22246754389126067 0.2235853400229707 0.24412554198100533 0.23537127395025884 0.27784018613935774 0.27085663952286965 0.2925986491767084 0.24441286820195757 0.25682072405356104 0.25189213116283976 0.3096639542706171 0.24881551051459544 0.3162123694928328 0.3167593912801439 0.2621280080137531 0.30203800102802053 0.2068191932991377 0.2353155509040009 0.25385079535149385 0.26854698537928823 0.1558552539949886 0.2431212359736392 0.2792523305885908 0.3056264171073578 0.23216785036111393 0.23762784587465258 0.2897327391714674 0.2407346109325627 0.21176673367192028 0.16986231818164454 0.1835350454142664 0.28816368808352943 0.29626684379550416 0.20007437217058843 0.22807786283668935 0.2714595871926236 0.15497395418273927 0.32264077303549765 0.29704443924808455 0.23781716825444585 0.28298953645270986 0.19197869433620177 0.1572572129114736 0.2947484428073573 0.25041535737286114 0.3282826633100268 0.2713301476658869 0.23463502334645117 0.27759927874666535 0.2160187904035243 0.15912903791557118 0.24221604135608898 0.23016873853726139 0.2808987832705195 0.1949591151327696 0.2924549844094877 0.2874421386901999 0.2377593207402519 0.20190799861491285 0.2188931547085249 0.2858010715007106 0.300482878251342 0.21347943958535992 0.2350043277163954 0.14639605531351313 0.3009629818622575 0.18399922725283932 0.30309464118357005 0.1865968890509949 0.17203826453759213 0.16656002753612273 0.23618853045701613 0.2608105974088125 0.20285484347357388 0.31071089208991315 0.3313629536770763 0.23314113768854472 0.2555617327802503 0.23474026272804083 0.1981381733804015 0.20724111139243676 0.14872356990392768 0.21833976193868068 0.2872433620168381 0.2614273210635516 0.23449670291219557 0.29742194744151323 0.19972689393933832 0.240687523473104 0.24446721767149437 0.19904213863349465 0.15236727727203858 
Hafenthyl-145mg\0.034436984623587893 0.03353034742538785 0.15174352694208684 0.11322697517190271 0.1479585022276901 0.14490723903735897 0.11783465763115264 0.04696924297445735 0.026133176682576267 0.13050936391992435 0.06337312491553602 0.08087070339514432 0.008973011548832508 0.021523722468189663 0.020021439658010166 0.058736131162630247 0.12403629728476419 0.12396758043763138 0.12893760104279162 0.023901686045721002 0.05226459201166483 0.12065885200194644 0.015908460434336025 0.14472155902126912 0.13249259101137678 0.04286198979442932 0.008016048488835904 0.06429879895387859 0.08441575820216554 0.015467583353918594 0.033438784249466426 0.10020029087979494 0.14684430159088993 0.10427498348059486 0.06548660525926203 0.09037748926209872 0.00546515608341084 0.02173186994151224 0.10466016947653613 0.1090104824571002 0.03176933694342988 0.08628974505710953 0.07855256290309975 0.11458099187418522 0.08679635156766245 0.13855453804157652 0.09151300783929947 0.14759779536245227 0.09741318496582252 0.02045457480945616 0.048640969271975885 0.13059958437097446 0.013894046744696626 0.009375142428042582 0.12604091670851267 0.13659456530850925 0.03560392853780112 0.05176527257155416 0.02435084494338748 0.1123603602095973 0.025828280836235947 0.0037973066094639466 0.11910435136384608 0.00891612355802973 0.0023915178120810414 0.09978862009929339 0.12043782816309309 0.0560537043434126 0.11886447821427164 0.12363390525050251 0.07692102778047893 0.12351154603574029 0.011619884865738778 0.0005360963684811238 0.1329693499161041 0.14594313403289425 0.0644973357092487 0.03531649837158371 0.11913586671839375 0.1334250899121721 0.051081275921142436 0.009355103362963673 0.11241881092324875 0.06399544325713731 0.045282308423924875 0.14985106244526505 0.013559959900755652 0.030449099507977473 0.08606742516054028 0.07871010164146856 0.06266723226984389 0.1473472091654239 0.06835546414384601 0.04045356265859309 0.03154247668077967 0.12165125022206529 0.09230218204755374 0.14452704946968964 0.029016221521716967 0.057713009345339815 0.06474366507649246 0.008922233553446086 0.05016269197386777 0.11472844096065225 0.06457167818284765 0.05763183098740191 0.0009894405632853889 0.1249027766570922 0.07512719786552732 0.14150835550089194 0.0774386830963831 0.13698281812176297 0.10458108189609128 0.040091721885472206 0.034904283787610284 0.01779025127185469 0.06267194341488386 0.04969005494433027 0.08472562940010471 0.00020401988853386356 0.020532555080877785 0.12384407552775925 0.1254763156759195 0.010823167340533141 0.14977350366168318 0.10689802901634131 0.081844971006503 0.05467813513904439 
Cali-USA-Ca-Gai-Leo-Giai-Doc-Gan\0.08649903650773201 0.05280863530779825 0.07314726644997821 0.18553588325798845 0.1474906435331522 0.12764560215990536 0.07810642860201951 0.13379305550646964 0.1652553393023826 0.10486072780642602 0.1515445542408505 0.1171796060562951 0.13879292994715678 0.08173125572728558 0.02987107996635815 0.1635852210230931 0.1386857390932281 0.1746971057322091 0.1726421291542769 0.18005274662020906 0.03010130773100739 0.06111155135044579 0.04682094946512559 0.10076120090141909 0.08185577445274315 0.11112400424870215 0.07397510487155745 0.14660283567903037 0.13859974659098268 0.06549484469918773 0.04248142961858179 0.17946558275492713 0.051264633615577045 0.11898682313861338 0.19390593024463204 0.10785370934766286 0.1523965182562442 0.09069971792092782 0.09139117772495982 0.06716991927986549 0.10574348370956237 0.13360923971800073 0.038464896746497494 0.07578205177986941 0.09818723609491413 0.1636048865617674 0.08000499965758875 0.18414441974925932 0.16502805374263996 0.1869610282352789 0.042437391248513395 0.008365563478646873 0.07458691740205184 0.18852061569622588 0.0496713158164842 0.03861244917741623 0.13845851827170422 0.04109005186481271 0.12341543266325297 0.1635074594818083 0.024298341883383246 0.08455295998702195 0.08768738763800334 0.14232089489227817 0.15763840484994635 0.09006769690858422 0.08754936772070625 0.06014983472008897 0.125832868946444 0.011577636441118295 0.10552075753118013 0.04814656925375917 0.09523888283735962 0.03640562303148745 0.12807329084449856 0.09567489729462426 0.041780943329852785 0.029166701910851855 0.15351903081277177 0.06589064778516754 0.13247695290981976 0.06378045189796802 0.10734798519265358 0.10501101460539283 0.060409172762475545 0.05462915678808786 0.11087187688530915 0.14012048090848056 0.029970628664994965 0.1665867977808408 0.045802967286355 0.06719006945629102 0.12456426205287183 0.13240579843499523 0.03592725590428729 0.13988287997831103 0.1698232055986261 0.1467644321893523 0.06847558284366673 0.021987658383223453 0.11609945757367515 0.04217801163894236 0.06539090195589138 0.04705008547200108 0.0853318065500141 0.091313946303873 0.06115849885229285 0.1229233314997024 0.09359635886346965 0.04846538719577135 0.018653858741838027 0.1138726421596866 0.022564308796911604 0.17790462145430852 0.024170787468162085 0.040417757825663286 0.02082425737263674 0.11079778167103262 0.10669500599009515 0.07232172577601594 0.1830113403503446 0.060275326989644176 0.06689316763750468 0.03301652702630867 0.05903767429806478 0.09389329637014338 0.1554804154007933 0.06947506194144026 
Carudxan-2mg\0.15286491151849735 0.09437402881185826 0.039332978586802 0.10438327494063386 0.032313499425514446 0.018637009672212924 0.11232968360272595 0.15613585454301676 0.08399481261684967 0.07471685646432151 0.1270776692939054 0.11435226528255925 0.18327056270379508 0.059279351486566836 0.11418992410590814 0.06230248341139434 0.1652121492817234 0.1976731158709246 0.02128327780068941 0.16401631690654034 0.0618572791285196 0.1350885868904023 0.016819109026489188 0.1381071830421458 0.11403600929748182 0.030161839047668983 0.027862825002202347 0.017891586924551003 0.14745180700522437 0.09024092434217884 0.13013898556717432 0.11694167049214084 0.0860000632744237 0.030045310948985025 0.02040472932411319 0.03284514061844793 0.09986069672203508 0.030272757371858097 0.06563307590908803 0.1401405606493197 0.08977303769481108 0.1178072490943387 0.02376184237181452 0.08662719294874564 0.11552596678836746 0.04956798593593984 0.13924350246909087 0.15149129911158793 0.05462729433815747 0.11346832948352088 0.11609672448269626 0.1538622812715491 0.1674743266076794 0.16557276492236386 0.03372529301502555 0.05004383067971784 0.15929961468371953 0.13671154027857343 0.12983643662074418 0.03632983028969336 0.01321905680454328 0.12403939219180056 0.03095924417060195 0.10073592167588341 0.14338113672121777 0.1433834833273336 0.10976868577773406 0.1796525225512327 0.07180599782914082 0.048982940206482986 0.07517408206499529 0.03386868461081517 0.16288513744993915 0.0768127873536192 0.05896619218858926 0.06351976183198543 0.17053301825757824 0.15025947744897117 0.06481284665948926 0.1627032647023315 0.04403935515377802 0.0954146923042325 0.11415149806214607 0.14295589981696735 0.1420118627872252 0.12681865513613372 0.057726313192289 0.09213336571195088 0.02117015908450825 0.16815377463129974 0.11105880198090087 0.0165349932976572 0.12599724509394405 0.06425876955490284 0.07652181889547713 0.019729719367618623 0.1430588301465027 0.09541548371435077 0.047630120660704836 0.09518818324707908 0.030722074825905724 0.18034440890503436 0.12590088962527232 0.16509381535832032 0.07105493276466067 0.07344149986479388 0.05238734905125507 0.06781330463836102 0.16769735743679048 0.13467264796985792 0.09760884945911733 0.17547841307379336 0.04784251222123425 0.04484000227868833 0.14581600793084556 0.11544370436420137 0.06095722774905339 0.11426979048380077 0.08228694604368093 0.18272656434650664 0.04302849398076022 0.05370512178955733 0.04532417002127901 0.16542714360674002 0.0828745546727691 0.0657880801827457 0.11043670845503546 0.17858201920418615 
